digraph Tree {
node [shape=box] ;
0 [label="X[22] <= 404.309\nmse = 25379.651\nsamples = 397047\nvalue = 313.944"] ;
1 [label="X[22] <= 259.963\nmse = 7517.162\nsamples = 335386\nvalue = 266.511"] ;
0 -> 1 [labeldistance=2.5, labelangle=45, headlabel="True"] ;
2 [label="X[22] <= 189.586\nmse = 2965.623\nsamples = 178718\nvalue = 209.282"] ;
1 -> 2 ;
3 [label="X[22] <= 145.691\nmse = 1623.469\nsamples = 62338\nvalue = 162.383"] ;
2 -> 3 ;
4 [label="X[22] <= 117.661\nmse = 1013.922\nsamples = 19622\nvalue = 127.542"] ;
3 -> 4 ;
5 [label="X[22] <= 87.901\nmse = 723.256\nsamples = 6145\nvalue = 102.025"] ;
4 -> 5 ;
6 [label="X[44] <= 143.882\nmse = 662.282\nsamples = 1367\nvalue = 77.361"] ;
5 -> 6 ;
7 [label="X[46] <= 11.5\nmse = 229.822\nsamples = 864\nvalue = 68.241"] ;
6 -> 7 ;
8 [label="X[22] <= 66.755\nmse = 180.515\nsamples = 774\nvalue = 66.276"] ;
7 -> 8 ;
9 [label="mse = 159.369\nsamples = 258\nvalue = 58.054"] ;
8 -> 9 ;
10 [label="mse = 140.385\nsamples = 516\nvalue = 70.388"] ;
8 -> 10 ;
11 [label="X[24] <= 73.5\nmse = 335.316\nsamples = 90\nvalue = 85.133"] ;
7 -> 11 ;
12 [label="mse = 466.0\nsamples = 19\nvalue = 99.0"] ;
11 -> 12 ;
13 [label="mse = 235.117\nsamples = 71\nvalue = 81.423"] ;
11 -> 13 ;
14 [label="X[37] <= 66.109\nmse = 1016.79\nsamples = 503\nvalue = 93.028"] ;
6 -> 14 ;
15 [label="X[18] <= 64.0\nmse = 665.241\nsamples = 441\nvalue = 89.342"] ;
14 -> 15 ;
16 [label="mse = 8742.25\nsamples = 2\nvalue = 192.5"] ;
15 -> 16 ;
17 [label="mse = 579.742\nsamples = 439\nvalue = 88.872"] ;
15 -> 17 ;
18 [label="X[19] <= 23.5\nmse = 2733.538\nsamples = 62\nvalue = 119.242"] ;
14 -> 18 ;
19 [label="mse = 1423.853\nsamples = 51\nvalue = 101.569"] ;
18 -> 19 ;
20 [label="mse = 643.421\nsamples = 11\nvalue = 201.182"] ;
18 -> 20 ;
21 [label="X[16] <= 0.5\nmse = 516.876\nsamples = 4778\nvalue = 109.081"] ;
5 -> 21 ;
22 [label="X[46] <= 11.5\nmse = 453.87\nsamples = 3886\nvalue = 105.049"] ;
21 -> 22 ;
23 [label="X[22] <= 107.968\nmse = 326.876\nsamples = 3509\nvalue = 102.599"] ;
22 -> 23 ;
24 [label="mse = 270.517\nsamples = 1897\nvalue = 96.189"] ;
23 -> 24 ;
25 [label="mse = 287.942\nsamples = 1612\nvalue = 110.143"] ;
23 -> 25 ;
26 [label="X[26] <= 26.0\nmse = 1060.089\nsamples = 377\nvalue = 127.851"] ;
22 -> 26 ;
27 [label="mse = 923.107\nsamples = 351\nvalue = 124.937"] ;
26 -> 27 ;
28 [label="mse = 1247.001\nsamples = 26\nvalue = 167.192"] ;
26 -> 28 ;
29 [label="X[22] <= 102.068\nmse = 411.984\nsamples = 892\nvalue = 126.647"] ;
21 -> 29 ;
30 [label="X[46] <= 11.5\nmse = 233.638\nsamples = 245\nvalue = 114.343"] ;
29 -> 30 ;
31 [label="mse = 198.953\nsamples = 224\nvalue = 112.955"] ;
30 -> 31 ;
32 [label="mse = 364.027\nsamples = 21\nvalue = 129.143"] ;
30 -> 32 ;
33 [label="X[46] <= 11.5\nmse = 400.484\nsamples = 647\nvalue = 131.306"] ;
29 -> 33 ;
34 [label="mse = 345.429\nsamples = 596\nvalue = 129.374"] ;
33 -> 34 ;
35 [label="mse = 490.574\nsamples = 51\nvalue = 153.882"] ;
33 -> 35 ;
36 [label="X[16] <= 0.5\nmse = 714.19\nsamples = 13477\nvalue = 139.177"] ;
4 -> 36 ;
37 [label="X[46] <= 11.5\nmse = 593.373\nsamples = 9373\nvalue = 131.587"] ;
36 -> 37 ;
38 [label="X[37] <= 55.543\nmse = 457.733\nsamples = 8526\nvalue = 129.094"] ;
37 -> 38 ;
39 [label="X[22] <= 129.518\nmse = 342.452\nsamples = 8153\nvalue = 127.745"] ;
38 -> 39 ;
40 [label="mse = 248.565\nsamples = 2557\nvalue = 119.178"] ;
39 -> 40 ;
41 [label="mse = 336.482\nsamples = 5596\nvalue = 131.66"] ;
39 -> 41 ;
42 [label="X[30] <= 9.5\nmse = 2068.894\nsamples = 373\nvalue = 158.571"] ;
38 -> 42 ;
43 [label="mse = 932.893\nsamples = 217\nvalue = 138.456"] ;
42 -> 43 ;
44 [label="mse = 2303.388\nsamples = 156\nvalue = 186.551"] ;
42 -> 44 ;
45 [label="X[18] <= 93.5\nmse = 1266.517\nsamples = 847\nvalue = 156.68"] ;
37 -> 45 ;
46 [label="X[29] <= 27.5\nmse = 2128.372\nsamples = 262\nvalue = 173.046"] ;
45 -> 46 ;
47 [label="mse = 656.188\nsamples = 4\nvalue = 290.25"] ;
46 -> 47 ;
48 [label="mse = 1934.921\nsamples = 258\nvalue = 171.229"] ;
46 -> 48 ;
49 [label="X[19] <= 10.5\nmse = 706.846\nsamples = 585\nvalue = 149.35"] ;
45 -> 49 ;
50 [label="mse = 595.77\nsamples = 581\nvalue = 148.535"] ;
49 -> 50 ;
51 [label="mse = 2725.688\nsamples = 4\nvalue = 267.75"] ;
49 -> 51 ;
52 [label="X[46] <= 11.5\nmse = 558.032\nsamples = 4104\nvalue = 156.512"] ;
36 -> 52 ;
53 [label="X[22] <= 129.998\nmse = 475.711\nsamples = 3785\nvalue = 154.092"] ;
52 -> 53 ;
54 [label="X[28] <= -4.5\nmse = 344.266\nsamples = 858\nvalue = 140.956"] ;
53 -> 54 ;
55 [label="mse = 843.938\nsamples = 34\nvalue = 172.941"] ;
54 -> 55 ;
56 [label="mse = 279.693\nsamples = 824\nvalue = 139.636"] ;
54 -> 56 ;
57 [label="X[37] <= 49.597\nmse = 448.831\nsamples = 2927\nvalue = 157.943"] ;
53 -> 57 ;
58 [label="mse = 359.286\nsamples = 2515\nvalue = 156.017"] ;
57 -> 58 ;
59 [label="mse = 834.589\nsamples = 412\nvalue = 169.699"] ;
57 -> 59 ;
60 [label="X[19] <= 5.5\nmse = 640.46\nsamples = 319\nvalue = 185.232"] ;
52 -> 60 ;
61 [label="X[37] <= 50.181\nmse = 637.35\nsamples = 163\nvalue = 174.73"] ;
60 -> 61 ;
62 [label="mse = 401.089\nsamples = 135\nvalue = 168.007"] ;
61 -> 62 ;
63 [label="mse = 507.98\nsamples = 28\nvalue = 207.143"] ;
61 -> 63 ;
64 [label="X[37] <= 46.195\nmse = 408.06\nsamples = 156\nvalue = 196.205"] ;
60 -> 64 ;
65 [label="mse = 306.662\nsamples = 116\nvalue = 191.043"] ;
64 -> 65 ;
66 [label="mse = 400.744\nsamples = 40\nvalue = 211.175"] ;
64 -> 66 ;
67 [label="X[16] <= 0.5\nmse = 1089.715\nsamples = 42716\nvalue = 178.388"] ;
3 -> 67 ;
68 [label="X[22] <= 166.936\nmse = 840.574\nsamples = 26250\nvalue = 166.378"] ;
67 -> 68 ;
69 [label="X[46] <= 11.5\nmse = 720.564\nsamples = 10559\nvalue = 153.931"] ;
68 -> 69 ;
70 [label="X[37] <= 64.722\nmse = 502.607\nsamples = 9602\nvalue = 150.886"] ;
69 -> 70 ;
71 [label="X[22] <= 160.473\nmse = 435.434\nsamples = 9259\nvalue = 149.837"] ;
70 -> 71 ;
72 [label="mse = 419.546\nsamples = 5947\nvalue = 145.939"] ;
71 -> 72 ;
73 [label="mse = 387.698\nsamples = 3312\nvalue = 156.835"] ;
71 -> 73 ;
74 [label="X[44] <= 265.451\nmse = 1484.238\nsamples = 343\nvalue = 179.204"] ;
70 -> 74 ;
75 [label="mse = 849.511\nsamples = 278\nvalue = 173.061"] ;
74 -> 75 ;
76 [label="mse = 3347.265\nsamples = 65\nvalue = 205.477"] ;
74 -> 76 ;
77 [label="X[42] <= 415.0\nmse = 1880.451\nsamples = 957\nvalue = 184.491"] ;
69 -> 77 ;
78 [label="X[4] <= 0.5\nmse = 1546.891\nsamples = 651\nvalue = 176.263"] ;
77 -> 78 ;
79 [label="mse = 980.457\nsamples = 595\nvalue = 172.321"] ;
78 -> 79 ;
80 [label="mse = 5646.23\nsamples = 56\nvalue = 218.143"] ;
78 -> 80 ;
81 [label="X[24] <= 73.5\nmse = 2139.591\nsamples = 306\nvalue = 201.997"] ;
77 -> 81 ;
82 [label="mse = 3787.57\nsamples = 53\nvalue = 236.528"] ;
81 -> 82 ;
83 [label="mse = 1492.236\nsamples = 253\nvalue = 194.763"] ;
81 -> 83 ;
84 [label="X[46] <= 11.5\nmse = 746.929\nsamples = 15691\nvalue = 174.754"] ;
68 -> 84 ;
85 [label="X[22] <= 182.308\nmse = 573.595\nsamples = 14343\nvalue = 172.241"] ;
84 -> 85 ;
86 [label="X[37] <= 69.232\nmse = 577.147\nsamples = 8641\nvalue = 167.867"] ;
85 -> 86 ;
87 [label="mse = 524.567\nsamples = 8192\nvalue = 166.494"] ;
86 -> 87 ;
88 [label="mse = 874.299\nsamples = 449\nvalue = 192.922"] ;
86 -> 88 ;
89 [label="X[8] <= 0.5\nmse = 495.285\nsamples = 5702\nvalue = 178.87"] ;
85 -> 89 ;
90 [label="mse = 445.019\nsamples = 5002\nvalue = 181.259"] ;
89 -> 90 ;
91 [label="mse = 522.044\nsamples = 700\nvalue = 161.793"] ;
89 -> 91 ;
92 [label="X[31] <= 9.5\nmse = 1809.22\nsamples = 1348\nvalue = 201.49"] ;
84 -> 92 ;
93 [label="X[5] <= 0.5\nmse = 1079.439\nsamples = 995\nvalue = 194.364"] ;
92 -> 93 ;
94 [label="mse = 809.258\nsamples = 547\nvalue = 183.093"] ;
93 -> 94 ;
95 [label="mse = 1064.859\nsamples = 448\nvalue = 208.125"] ;
93 -> 95 ;
96 [label="X[28] <= 3.5\nmse = 3319.587\nsamples = 353\nvalue = 221.578"] ;
92 -> 96 ;
97 [label="mse = 2884.403\nsamples = 327\nvalue = 215.758"] ;
96 -> 97 ;
98 [label="mse = 3009.947\nsamples = 26\nvalue = 294.769"] ;
96 -> 98 ;
99 [label="X[22] <= 167.95\nmse = 890.41\nsamples = 16466\nvalue = 197.533"] ;
67 -> 99 ;
100 [label="X[46] <= 11.5\nmse = 703.31\nsamples = 5992\nvalue = 181.59"] ;
99 -> 100 ;
101 [label="X[37] <= 56.07\nmse = 611.297\nsamples = 5521\nvalue = 179.172"] ;
100 -> 101 ;
102 [label="X[22] <= 157.809\nmse = 446.385\nsamples = 4490\nvalue = 175.788"] ;
101 -> 102 ;
103 [label="mse = 399.098\nsamples = 2386\nvalue = 170.391"] ;
102 -> 103 ;
104 [label="mse = 429.511\nsamples = 2104\nvalue = 181.909"] ;
102 -> 104 ;
105 [label="X[30] <= -3.5\nmse = 1062.384\nsamples = 1031\nvalue = 193.911"] ;
101 -> 105 ;
106 [label="mse = 1579.202\nsamples = 42\nvalue = 235.5"] ;
105 -> 106 ;
107 [label="mse = 963.863\nsamples = 989\nvalue = 192.145"] ;
105 -> 107 ;
108 [label="X[37] <= 51.01\nmse = 910.442\nsamples = 471\nvalue = 209.926"] ;
100 -> 108 ;
109 [label="X[19] <= 6.5\nmse = 646.988\nsamples = 346\nvalue = 201.095"] ;
108 -> 109 ;
110 [label="mse = 555.26\nsamples = 215\nvalue = 192.205"] ;
109 -> 110 ;
111 [label="mse = 454.887\nsamples = 131\nvalue = 215.687"] ;
109 -> 111 ;
112 [label="X[37] <= 90.273\nmse = 826.425\nsamples = 125\nvalue = 234.368"] ;
108 -> 112 ;
113 [label="mse = 664.728\nsamples = 117\nvalue = 231.179"] ;
112 -> 113 ;
114 [label="mse = 868.0\nsamples = 8\nvalue = 281.0"] ;
112 -> 114 ;
115 [label="X[46] <= 11.5\nmse = 768.83\nsamples = 10474\nvalue = 206.654"] ;
99 -> 115 ;
116 [label="X[37] <= 61.455\nmse = 649.674\nsamples = 9649\nvalue = 203.886"] ;
115 -> 116 ;
117 [label="X[22] <= 176.165\nmse = 562.594\nsamples = 7585\nvalue = 200.658"] ;
116 -> 117 ;
118 [label="mse = 557.758\nsamples = 2265\nvalue = 193.616"] ;
117 -> 118 ;
119 [label="mse = 534.557\nsamples = 5320\nvalue = 203.655"] ;
117 -> 119 ;
120 [label="X[28] <= -4.5\nmse = 790.677\nsamples = 2064\nvalue = 215.748"] ;
116 -> 120 ;
121 [label="mse = 1689.1\nsamples = 98\nvalue = 272.888"] ;
120 -> 121 ;
122 [label="mse = 575.031\nsamples = 1966\nvalue = 212.9"] ;
120 -> 122 ;
123 [label="X[37] <= 60.49\nmse = 1024.193\nsamples = 825\nvalue = 239.036"] ;
115 -> 123 ;
124 [label="X[19] <= 6.5\nmse = 831.414\nsamples = 636\nvalue = 232.204"] ;
123 -> 124 ;
125 [label="mse = 718.694\nsamples = 378\nvalue = 222.183"] ;
124 -> 125 ;
126 [label="mse = 633.813\nsamples = 258\nvalue = 246.888"] ;
124 -> 126 ;
127 [label="X[25] <= 3.5\nmse = 987.296\nsamples = 189\nvalue = 262.026"] ;
123 -> 127 ;
128 [label="mse = 903.14\nsamples = 120\nvalue = 251.958"] ;
127 -> 128 ;
129 [label="mse = 650.77\nsamples = 69\nvalue = 279.536"] ;
127 -> 129 ;
130 [label="X[16] <= 0.5\nmse = 1875.302\nsamples = 116380\nvalue = 234.403"] ;
2 -> 130 ;
131 [label="X[22] <= 222.793\nmse = 1471.086\nsamples = 63691\nvalue = 216.371"] ;
130 -> 131 ;
132 [label="X[46] <= 11.5\nmse = 1001.395\nsamples = 30304\nvalue = 199.087"] ;
131 -> 132 ;
133 [label="X[22] <= 209.34\nmse = 707.107\nsamples = 27688\nvalue = 196.024"] ;
132 -> 133 ;
134 [label="X[8] <= 0.5\nmse = 615.287\nsamples = 15120\nvalue = 188.809"] ;
133 -> 134 ;
135 [label="X[4] <= 0.5\nmse = 588.073\nsamples = 12594\nvalue = 191.688"] ;
134 -> 135 ;
136 [label="mse = 535.519\nsamples = 11319\nvalue = 193.51"] ;
135 -> 136 ;
137 [label="mse = 763.586\nsamples = 1275\nvalue = 175.515"] ;
135 -> 137 ;
138 [label="X[37] <= 37.999\nmse = 503.557\nsamples = 2526\nvalue = 174.453"] ;
134 -> 138 ;
139 [label="mse = 417.465\nsamples = 1706\nvalue = 178.358"] ;
138 -> 139 ;
140 [label="mse = 584.977\nsamples = 820\nvalue = 166.33"] ;
138 -> 140 ;
141 [label="X[8] <= 0.5\nmse = 679.603\nsamples = 12568\nvalue = 204.704"] ;
133 -> 141 ;
142 [label="X[4] <= 0.5\nmse = 655.051\nsamples = 11036\nvalue = 207.144"] ;
141 -> 142 ;
143 [label="mse = 587.385\nsamples = 9668\nvalue = 209.946"] ;
142 -> 143 ;
144 [label="mse = 685.717\nsamples = 1368\nvalue = 187.344"] ;
142 -> 144 ;
145 [label="X[37] <= 33.79\nmse = 504.467\nsamples = 1532\nvalue = 187.123"] ;
141 -> 145 ;
146 [label="mse = 388.532\nsamples = 333\nvalue = 199.721"] ;
145 -> 146 ;
147 [label="mse = 480.345\nsamples = 1199\nvalue = 183.624"] ;
145 -> 147 ;
148 [label="X[31] <= 9.5\nmse = 2965.553\nsamples = 2616\nvalue = 231.511"] ;
132 -> 148 ;
149 [label="X[5] <= 0.5\nmse = 1677.149\nsamples = 1817\nvalue = 221.919"] ;
148 -> 149 ;
150 [label="X[30] <= 8.5\nmse = 1272.301\nsamples = 1127\nvalue = 210.56"] ;
149 -> 150 ;
151 [label="mse = 990.076\nsamples = 1110\nvalue = 208.661"] ;
150 -> 151 ;
152 [label="mse = 4096.131\nsamples = 17\nvalue = 334.529"] ;
150 -> 152 ;
153 [label="X[37] <= 60.493\nmse = 1783.475\nsamples = 690\nvalue = 240.471"] ;
149 -> 153 ;
154 [label="mse = 1518.7\nsamples = 684\nvalue = 238.923"] ;
153 -> 154 ;
155 [label="mse = 532.0\nsamples = 6\nvalue = 417.0"] ;
153 -> 155 ;
156 [label="X[19] <= 12.5\nmse = 5210.437\nsamples = 799\nvalue = 253.324"] ;
148 -> 156 ;
157 [label="X[19] <= 11.5\nmse = 5005.807\nsamples = 752\nvalue = 258.582"] ;
156 -> 157 ;
158 [label="mse = 3974.123\nsamples = 665\nvalue = 246.806"] ;
157 -> 158 ;
159 [label="mse = 3728.861\nsamples = 87\nvalue = 348.598"] ;
157 -> 159 ;
160 [label="X[42] <= 475.0\nmse = 963.814\nsamples = 47\nvalue = 169.191"] ;
156 -> 160 ;
161 [label="mse = 638.333\nsamples = 39\nvalue = 160.974"] ;
160 -> 161 ;
162 [label="mse = 616.688\nsamples = 8\nvalue = 209.25"] ;
160 -> 162 ;
163 [label="X[46] <= 11.5\nmse = 1380.155\nsamples = 33387\nvalue = 232.059"] ;
131 -> 163 ;
164 [label="X[22] <= 246.528\nmse = 994.608\nsamples = 30493\nvalue = 228.593"] ;
163 -> 164 ;
165 [label="X[4] <= 0.5\nmse = 831.077\nsamples = 18955\nvalue = 221.244"] ;
164 -> 165 ;
166 [label="X[8] <= 0.5\nmse = 782.895\nsamples = 16435\nvalue = 223.904"] ;
165 -> 166 ;
167 [label="mse = 717.119\nsamples = 13439\nvalue = 227.972"] ;
166 -> 167 ;
168 [label="mse = 670.741\nsamples = 2996\nvalue = 205.657"] ;
166 -> 168 ;
169 [label="X[37] <= 80.911\nmse = 798.052\nsamples = 2520\nvalue = 203.892"] ;
165 -> 169 ;
170 [label="mse = 765.821\nsamples = 2295\nvalue = 205.982"] ;
169 -> 170 ;
171 [label="mse = 627.57\nsamples = 225\nvalue = 182.569"] ;
169 -> 171 ;
172 [label="X[4] <= 0.5\nmse = 1028.768\nsamples = 11538\nvalue = 240.666"] ;
164 -> 172 ;
173 [label="X[8] <= 0.5\nmse = 968.729\nsamples = 10001\nvalue = 243.513"] ;
172 -> 173 ;
174 [label="mse = 921.243\nsamples = 8466\nvalue = 247.218"] ;
173 -> 174 ;
175 [label="mse = 737.424\nsamples = 1535\nvalue = 223.08"] ;
173 -> 175 ;
176 [label="X[44] <= 192.075\nmse = 1023.55\nsamples = 1537\nvalue = 222.142"] ;
172 -> 176 ;
177 [label="mse = 675.307\nsamples = 630\nvalue = 211.86"] ;
176 -> 177 ;
178 [label="mse = 1141.012\nsamples = 907\nvalue = 229.283"] ;
176 -> 178 ;
179 [label="X[4] <= 0.5\nmse = 3982.357\nsamples = 2894\nvalue = 268.577"] ;
163 -> 179 ;
180 [label="X[30] <= 8.5\nmse = 2623.752\nsamples = 2468\nvalue = 261.039"] ;
179 -> 180 ;
181 [label="X[5] <= 0.5\nmse = 2212.738\nsamples = 2410\nvalue = 258.037"] ;
180 -> 181 ;
182 [label="mse = 1914.707\nsamples = 1540\nvalue = 245.345"] ;
181 -> 182 ;
183 [label="mse = 1950.478\nsamples = 870\nvalue = 280.502"] ;
181 -> 183 ;
184 [label="X[42] <= 483.5\nmse = 3763.992\nsamples = 58\nvalue = 385.793"] ;
180 -> 184 ;
185 [label="mse = 1877.648\nsamples = 37\nvalue = 350.973"] ;
184 -> 185 ;
186 [label="mse = 1187.551\nsamples = 21\nvalue = 447.143"] ;
184 -> 186 ;
187 [label="X[19] <= 7.5\nmse = 9617.153\nsamples = 426\nvalue = 312.246"] ;
179 -> 187 ;
188 [label="X[22] <= 249.842\nmse = 598.291\nsamples = 128\nvalue = 228.117"] ;
187 -> 188 ;
189 [label="mse = 450.715\nsamples = 87\nvalue = 220.368"] ;
188 -> 189 ;
190 [label="mse = 513.612\nsamples = 41\nvalue = 244.561"] ;
188 -> 190 ;
191 [label="X[24] <= 79.5\nmse = 9145.109\nsamples = 298\nvalue = 348.383"] ;
187 -> 191 ;
192 [label="mse = 7866.752\nsamples = 182\nvalue = 387.984"] ;
191 -> 192 ;
193 [label="mse = 4829.843\nsamples = 116\nvalue = 286.25"] ;
191 -> 193 ;
194 [label="X[22] <= 228.503\nmse = 1495.696\nsamples = 52689\nvalue = 256.201"] ;
130 -> 194 ;
195 [label="X[46] <= 11.5\nmse = 991.807\nsamples = 28433\nvalue = 238.031"] ;
194 -> 195 ;
196 [label="X[22] <= 209.099\nmse = 831.883\nsamples = 26175\nvalue = 234.877"] ;
195 -> 196 ;
197 [label="X[37] <= 58.028\nmse = 679.97\nsamples = 12093\nvalue = 223.511"] ;
196 -> 197 ;
198 [label="X[22] <= 201.44\nmse = 602.302\nsamples = 8181\nvalue = 219.432"] ;
197 -> 198 ;
199 [label="mse = 574.574\nsamples = 4994\nvalue = 215.892"] ;
198 -> 199 ;
200 [label="mse = 595.338\nsamples = 3187\nvalue = 224.98"] ;
198 -> 200 ;
201 [label="X[28] <= -2.5\nmse = 734.849\nsamples = 3912\nvalue = 232.041"] ;
197 -> 201 ;
202 [label="mse = 1801.801\nsamples = 327\nvalue = 256.645"] ;
201 -> 202 ;
203 [label="mse = 577.273\nsamples = 3585\nvalue = 229.796"] ;
201 -> 203 ;
204 [label="X[37] <= 61.598\nmse = 756.141\nsamples = 14082\nvalue = 244.637"] ;
196 -> 204 ;
205 [label="X[22] <= 216.922\nmse = 578.134\nsamples = 8717\nvalue = 239.192"] ;
204 -> 205 ;
206 [label="mse = 540.939\nsamples = 3900\nvalue = 234.485"] ;
205 -> 206 ;
207 [label="mse = 575.787\nsamples = 4817\nvalue = 243.003"] ;
205 -> 207 ;
208 [label="X[28] <= -4.5\nmse = 918.921\nsamples = 5365\nvalue = 253.484"] ;
204 -> 208 ;
209 [label="mse = 2495.306\nsamples = 320\nvalue = 277.512"] ;
208 -> 209 ;
210 [label="mse = 779.987\nsamples = 5045\nvalue = 251.96"] ;
208 -> 210 ;
211 [label="X[19] <= 6.5\nmse = 1393.677\nsamples = 2258\nvalue = 274.591"] ;
195 -> 211 ;
212 [label="X[37] <= 66.497\nmse = 1353.316\nsamples = 1361\nvalue = 264.134"] ;
211 -> 212 ;
213 [label="X[13] <= 0.5\nmse = 1167.078\nsamples = 1103\nvalue = 257.41"] ;
212 -> 213 ;
214 [label="mse = 990.944\nsamples = 817\nvalue = 266.011"] ;
213 -> 214 ;
215 [label="mse = 855.177\nsamples = 286\nvalue = 232.839"] ;
213 -> 215 ;
216 [label="X[30] <= -3.5\nmse = 1129.896\nsamples = 258\nvalue = 292.88"] ;
212 -> 216 ;
217 [label="mse = 922.062\nsamples = 62\nvalue = 319.258"] ;
216 -> 217 ;
218 [label="mse = 905.912\nsamples = 196\nvalue = 284.536"] ;
216 -> 218 ;
219 [label="X[22] <= 211.403\nmse = 1037.227\nsamples = 897\nvalue = 290.458"] ;
211 -> 219 ;
220 [label="X[42] <= 364.0\nmse = 838.405\nsamples = 483\nvalue = 278.948"] ;
219 -> 220 ;
221 [label="mse = 748.848\nsamples = 100\nvalue = 259.95"] ;
220 -> 221 ;
222 [label="mse = 742.945\nsamples = 383\nvalue = 283.909"] ;
220 -> 222 ;
223 [label="X[42] <= 453.0\nmse = 934.308\nsamples = 414\nvalue = 303.886"] ;
219 -> 223 ;
224 [label="mse = 856.064\nsamples = 274\nvalue = 295.661"] ;
223 -> 224 ;
225 [label="mse = 695.828\nsamples = 140\nvalue = 319.986"] ;
223 -> 225 ;
226 [label="X[46] <= 11.5\nmse = 1245.623\nsamples = 24256\nvalue = 277.502"] ;
194 -> 226 ;
227 [label="X[22] <= 245.843\nmse = 1028.239\nsamples = 22292\nvalue = 273.7"] ;
226 -> 227 ;
228 [label="X[37] <= 64.728\nmse = 918.544\nsamples = 11735\nvalue = 265.428"] ;
227 -> 228 ;
229 [label="X[22] <= 238.49\nmse = 698.811\nsamples = 6560\nvalue = 258.302"] ;
228 -> 229 ;
230 [label="mse = 685.759\nsamples = 4041\nvalue = 254.79"] ;
229 -> 230 ;
231 [label="mse = 668.202\nsamples = 2519\nvalue = 263.937"] ;
229 -> 231 ;
232 [label="X[23] <= -0.5\nmse = 1051.137\nsamples = 5175\nvalue = 274.46"] ;
228 -> 232 ;
233 [label="mse = 2483.245\nsamples = 448\nvalue = 293.518"] ;
232 -> 233 ;
234 [label="mse = 877.726\nsamples = 4727\nvalue = 272.654"] ;
232 -> 234 ;
235 [label="X[37] <= 74.898\nmse = 989.56\nsamples = 10557\nvalue = 282.895"] ;
227 -> 235 ;
236 [label="X[22] <= 252.06\nmse = 803.634\nsamples = 7382\nvalue = 278.18"] ;
235 -> 236 ;
237 [label="mse = 762.144\nsamples = 3326\nvalue = 273.815"] ;
236 -> 237 ;
238 [label="mse = 809.224\nsamples = 4056\nvalue = 281.759"] ;
236 -> 238 ;
239 [label="X[28] <= -4.5\nmse = 1249.968\nsamples = 3175\nvalue = 293.858"] ;
235 -> 239 ;
240 [label="mse = 3723.844\nsamples = 177\nvalue = 326.395"] ;
239 -> 240 ;
241 [label="mse = 1037.717\nsamples = 2998\nvalue = 291.937"] ;
239 -> 241 ;
242 [label="X[19] <= 4.5\nmse = 1687.064\nsamples = 1964\nvalue = 320.651"] ;
226 -> 242 ;
243 [label="X[29] <= 99.0\nmse = 1538.405\nsamples = 710\nvalue = 300.983"] ;
242 -> 243 ;
244 [label="X[13] <= 0.5\nmse = 1205.813\nsamples = 670\nvalue = 296.728"] ;
243 -> 244 ;
245 [label="mse = 1000.44\nsamples = 472\nvalue = 304.814"] ;
244 -> 245 ;
246 [label="mse = 1168.076\nsamples = 198\nvalue = 277.455"] ;
244 -> 246 ;
247 [label="X[42] <= 550.0\nmse = 1727.138\nsamples = 40\nvalue = 372.25"] ;
243 -> 247 ;
248 [label="mse = 825.474\nsamples = 29\nvalue = 352.793"] ;
247 -> 248 ;
249 [label="mse = 474.975\nsamples = 11\nvalue = 423.545"] ;
247 -> 249 ;
250 [label="X[42] <= 489.0\nmse = 1428.204\nsamples = 1254\nvalue = 331.787"] ;
242 -> 250 ;
251 [label="X[37] <= 68.967\nmse = 1110.738\nsamples = 783\nvalue = 321.585"] ;
250 -> 251 ;
252 [label="mse = 999.494\nsamples = 493\nvalue = 313.947"] ;
251 -> 252 ;
253 [label="mse = 1032.1\nsamples = 290\nvalue = 334.569"] ;
251 -> 253 ;
254 [label="X[21] <= 41.0\nmse = 1495.284\nsamples = 471\nvalue = 348.747"] ;
250 -> 254 ;
255 [label="mse = 1399.231\nsamples = 418\nvalue = 352.785"] ;
254 -> 255 ;
256 [label="mse = 1110.387\nsamples = 53\nvalue = 316.906"] ;
254 -> 256 ;
257 [label="X[22] <= 322.356\nmse = 4711.303\nsamples = 156668\nvalue = 331.794"] ;
1 -> 257 ;
258 [label="X[16] <= 0.5\nmse = 2652.403\nsamples = 88258\nvalue = 299.663"] ;
257 -> 258 ;
259 [label="X[22] <= 293.592\nmse = 2055.827\nsamples = 47122\nvalue = 275.829"] ;
258 -> 259 ;
260 [label="X[46] <= 11.5\nmse = 1611.399\nsamples = 28820\nvalue = 264.475"] ;
259 -> 260 ;
261 [label="X[8] <= 0.5\nmse = 1141.166\nsamples = 26327\nvalue = 260.843"] ;
260 -> 261 ;
262 [label="X[4] <= 0.5\nmse = 1092.881\nsamples = 21962\nvalue = 264.414"] ;
261 -> 262 ;
263 [label="X[22] <= 275.45\nmse = 991.616\nsamples = 18826\nvalue = 267.989"] ;
262 -> 263 ;
264 [label="mse = 924.992\nsamples = 9819\nvalue = 259.924"] ;
263 -> 264 ;
265 [label="mse = 916.015\nsamples = 9007\nvalue = 276.782"] ;
263 -> 265 ;
266 [label="X[22] <= 276.232\nmse = 1163.364\nsamples = 3136\nvalue = 242.95"] ;
262 -> 266 ;
267 [label="mse = 980.619\nsamples = 1350\nvalue = 233.49"] ;
266 -> 267 ;
268 [label="mse = 1182.723\nsamples = 1786\nvalue = 250.101"] ;
266 -> 268 ;
269 [label="X[22] <= 275.062\nmse = 997.186\nsamples = 4365\nvalue = 242.877"] ;
261 -> 269 ;
270 [label="X[46] <= 1.5\nmse = 747.121\nsamples = 1784\nvalue = 232.707"] ;
269 -> 270 ;
271 [label="mse = 943.252\nsamples = 138\nvalue = 209.036"] ;
270 -> 271 ;
272 [label="mse = 679.764\nsamples = 1646\nvalue = 234.691"] ;
270 -> 272 ;
273 [label="X[46] <= 1.5\nmse = 1049.113\nsamples = 2581\nvalue = 249.907"] ;
269 -> 273 ;
274 [label="mse = 1696.153\nsamples = 195\nvalue = 217.687"] ;
273 -> 274 ;
275 [label="mse = 904.455\nsamples = 2386\nvalue = 252.541"] ;
273 -> 275 ;
276 [label="X[30] <= 8.5\nmse = 4966.721\nsamples = 2493\nvalue = 302.832"] ;
260 -> 276 ;
277 [label="X[4] <= 0.5\nmse = 4515.72\nsamples = 2424\nvalue = 299.375"] ;
276 -> 277 ;
278 [label="X[5] <= 0.5\nmse = 2899.362\nsamples = 2096\nvalue = 291.265"] ;
277 -> 278 ;
279 [label="mse = 2592.56\nsamples = 1361\nvalue = 275.629"] ;
278 -> 279 ;
280 [label="mse = 2176.494\nsamples = 735\nvalue = 320.218"] ;
278 -> 280 ;
281 [label="X[19] <= 7.5\nmse = 11738.362\nsamples = 328\nvalue = 351.201"] ;
277 -> 281 ;
282 [label="mse = 494.688\nsamples = 100\nvalue = 259.45"] ;
281 -> 282 ;
283 [label="mse = 11358.168\nsamples = 228\nvalue = 391.443"] ;
281 -> 283 ;
284 [label="X[42] <= 516.5\nmse = 5645.787\nsamples = 69\nvalue = 424.261"] ;
276 -> 284 ;
285 [label="X[42] <= 422.5\nmse = 1989.372\nsamples = 37\nvalue = 379.919"] ;
284 -> 285 ;
286 [label="mse = 1495.36\nsamples = 5\nvalue = 305.8"] ;
285 -> 286 ;
287 [label="mse = 1074.062\nsamples = 32\nvalue = 391.5"] ;
285 -> 287 ;
288 [label="X[42] <= 677.0\nmse = 4971.437\nsamples = 32\nvalue = 475.531"] ;
284 -> 288 ;
289 [label="mse = 2590.369\nsamples = 29\nvalue = 459.103"] ;
288 -> 289 ;
290 [label="mse = 161.556\nsamples = 3\nvalue = 634.333"] ;
288 -> 290 ;
291 [label="X[46] <= 11.5\nmse = 2233.043\nsamples = 18302\nvalue = 293.707"] ;
259 -> 291 ;
292 [label="X[4] <= 0.5\nmse = 1565.457\nsamples = 16680\nvalue = 289.087"] ;
291 -> 292 ;
293 [label="X[8] <= 0.5\nmse = 1463.911\nsamples = 13873\nvalue = 293.726"] ;
292 -> 293 ;
294 [label="X[22] <= 309.601\nmse = 1353.458\nsamples = 11098\nvalue = 299.873"] ;
293 -> 294 ;
295 [label="mse = 1175.167\nsamples = 5624\nvalue = 292.597"] ;
294 -> 295 ;
296 [label="mse = 1426.377\nsamples = 5474\nvalue = 307.348"] ;
294 -> 296 ;
297 [label="X[46] <= 1.5\nmse = 1150.24\nsamples = 2775\nvalue = 269.143"] ;
293 -> 297 ;
298 [label="mse = 2006.962\nsamples = 210\nvalue = 236.7"] ;
297 -> 298 ;
299 [label="mse = 986.868\nsamples = 2565\nvalue = 271.8"] ;
297 -> 299 ;
300 [label="X[37] <= 91.888\nmse = 1435.43\nsamples = 2807\nvalue = 266.162"] ;
292 -> 300 ;
301 [label="X[17] <= 0.5\nmse = 1273.207\nsamples = 1434\nvalue = 273.99"] ;
300 -> 301 ;
302 [label="mse = 1170.817\nsamples = 1430\nvalue = 274.533"] ;
301 -> 302 ;
303 [label="mse = 43.188\nsamples = 4\nvalue = 79.75"] ;
301 -> 303 ;
304 [label="X[44] <= 238.711\nmse = 1474.047\nsamples = 1373\nvalue = 257.988"] ;
300 -> 304 ;
305 [label="mse = 1143.523\nsamples = 826\nvalue = 249.426"] ;
304 -> 305 ;
306 [label="mse = 1695.331\nsamples = 547\nvalue = 270.916"] ;
304 -> 306 ;
307 [label="X[24] <= 62.5\nmse = 6621.691\nsamples = 1622\nvalue = 341.216"] ;
291 -> 307 ;
308 [label="X[44] <= 249.263\nmse = 2212.359\nsamples = 48\nvalue = 210.125"] ;
307 -> 308 ;
309 [label="X[32] <= 1020.5\nmse = 2124.993\nsamples = 24\nvalue = 184.583"] ;
308 -> 309 ;
310 [label="mse = 1840.247\nsamples = 9\nvalue = 153.556"] ;
309 -> 310 ;
311 [label="mse = 1371.627\nsamples = 15\nvalue = 203.2"] ;
309 -> 311 ;
312 [label="X[38] <= 0.5\nmse = 994.972\nsamples = 24\nvalue = 235.667"] ;
308 -> 312 ;
313 [label="mse = 724.196\nsamples = 15\nvalue = 221.733"] ;
312 -> 313 ;
314 [label="mse = 583.432\nsamples = 9\nvalue = 258.889"] ;
312 -> 314 ;
315 [label="X[19] <= 10.5\nmse = 6216.115\nsamples = 1574\nvalue = 345.213"] ;
307 -> 315 ;
316 [label="X[9] <= 0.5\nmse = 4499.325\nsamples = 1391\nvalue = 332.782"] ;
315 -> 316 ;
317 [label="mse = 4309.449\nsamples = 1233\nvalue = 339.993"] ;
316 -> 317 ;
318 [label="mse = 2409.085\nsamples = 158\nvalue = 276.513"] ;
316 -> 318 ;
319 [label="X[3] <= 0.5\nmse = 9162.306\nsamples = 183\nvalue = 439.705"] ;
315 -> 319 ;
320 [label="mse = 7949.275\nsamples = 152\nvalue = 461.382"] ;
319 -> 320 ;
321 [label="mse = 1509.534\nsamples = 31\nvalue = 333.419"] ;
319 -> 321 ;
322 [label="X[22] <= 290.592\nmse = 1939.639\nsamples = 41136\nvalue = 326.965"] ;
258 -> 322 ;
323 [label="X[46] <= 11.5\nmse = 1487.985\nsamples = 22745\nvalue = 310.838"] ;
322 -> 323 ;
324 [label="X[22] <= 274.848\nmse = 1188.284\nsamples = 20892\nvalue = 306.544"] ;
323 -> 324 ;
325 [label="X[37] <= 77.275\nmse = 1095.935\nsamples = 10942\nvalue = 297.963"] ;
324 -> 325 ;
326 [label="X[29] <= 65.5\nmse = 925.255\nsamples = 7451\nvalue = 293.661"] ;
325 -> 326 ;
327 [label="mse = 950.271\nsamples = 5904\nvalue = 296.255"] ;
326 -> 327 ;
328 [label="mse = 706.045\nsamples = 1547\nvalue = 283.759"] ;
326 -> 328 ;
329 [label="X[28] <= -5.5\nmse = 1336.424\nsamples = 3491\nvalue = 307.144"] ;
325 -> 329 ;
330 [label="mse = 4172.959\nsamples = 152\nvalue = 345.961"] ;
329 -> 330 ;
331 [label="mse = 1135.586\nsamples = 3339\nvalue = 305.377"] ;
329 -> 331 ;
332 [label="X[37] <= 84.078\nmse = 1119.79\nsamples = 9950\nvalue = 315.982"] ;
324 -> 332 ;
333 [label="X[37] <= 45.743\nmse = 984.967\nsamples = 7157\nvalue = 311.227"] ;
332 -> 333 ;
334 [label="mse = 811.878\nsamples = 1204\nvalue = 300.318"] ;
333 -> 334 ;
335 [label="mse = 991.036\nsamples = 5953\nvalue = 313.434"] ;
333 -> 335 ;
336 [label="X[28] <= -4.5\nmse = 1258.922\nsamples = 2793\nvalue = 328.165"] ;
332 -> 336 ;
337 [label="mse = 3724.093\nsamples = 153\nvalue = 359.176"] ;
336 -> 337 ;
338 [label="mse = 1057.087\nsamples = 2640\nvalue = 326.367"] ;
336 -> 338 ;
339 [label="X[19] <= 4.5\nmse = 2315.783\nsamples = 1853\nvalue = 359.247"] ;
323 -> 339 ;
340 [label="X[13] <= 0.5\nmse = 1940.44\nsamples = 678\nvalue = 336.588"] ;
339 -> 340 ;
341 [label="X[37] <= 64.609\nmse = 1537.741\nsamples = 470\nvalue = 347.36"] ;
340 -> 341 ;
342 [label="mse = 631.799\nsamples = 160\nvalue = 325.962"] ;
341 -> 342 ;
343 [label="mse = 1647.06\nsamples = 310\nvalue = 358.403"] ;
341 -> 343 ;
344 [label="X[43] <= 122.858\nmse = 1995.87\nsamples = 208\nvalue = 312.25"] ;
340 -> 344 ;
345 [label="mse = 1551.346\nsamples = 138\nvalue = 298.094"] ;
344 -> 345 ;
346 [label="mse = 1698.361\nsamples = 70\nvalue = 340.157"] ;
344 -> 346 ;
347 [label="X[43] <= 121.355\nmse = 2065.192\nsamples = 1175\nvalue = 372.321"] ;
339 -> 347 ;
348 [label="X[44] <= 259.444\nmse = 1833.191\nsamples = 727\nvalue = 360.867"] ;
347 -> 348 ;
349 [label="mse = 1685.986\nsamples = 718\nvalue = 362.305"] ;
348 -> 349 ;
350 [label="mse = 242.988\nsamples = 9\nvalue = 246.111"] ;
348 -> 350 ;
351 [label="X[42] <= 845.5\nmse = 1883.266\nsamples = 448\nvalue = 390.908"] ;
347 -> 351 ;
352 [label="mse = 1585.312\nsamples = 441\nvalue = 389.025"] ;
351 -> 352 ;
353 [label="mse = 6349.959\nsamples = 7\nvalue = 509.571"] ;
351 -> 353 ;
354 [label="X[46] <= 11.5\nmse = 1778.721\nsamples = 18391\nvalue = 346.911"] ;
322 -> 354 ;
355 [label="X[37] <= 85.971\nmse = 1434.729\nsamples = 16883\nvalue = 342.157"] ;
354 -> 355 ;
356 [label="X[22] <= 308.215\nmse = 1120.427\nsamples = 10550\nvalue = 335.208"] ;
355 -> 356 ;
357 [label="X[22] <= 297.417\nmse = 1040.148\nsamples = 6256\nvalue = 328.176"] ;
356 -> 357 ;
358 [label="mse = 951.722\nsamples = 2724\nvalue = 322.616"] ;
357 -> 358 ;
359 [label="mse = 1066.113\nsamples = 3532\nvalue = 332.464"] ;
357 -> 359 ;
360 [label="X[29] <= 65.5\nmse = 1060.396\nsamples = 4294\nvalue = 345.452"] ;
356 -> 360 ;
361 [label="mse = 1058.008\nsamples = 3399\nvalue = 348.191"] ;
360 -> 361 ;
362 [label="mse = 932.804\nsamples = 895\nvalue = 335.051"] ;
360 -> 362 ;
363 [label="X[22] <= 302.274\nmse = 1743.817\nsamples = 6333\nvalue = 353.735"] ;
355 -> 363 ;
364 [label="X[23] <= 0.5\nmse = 1487.665\nsamples = 2201\nvalue = 343.333"] ;
363 -> 364 ;
365 [label="mse = 2794.436\nsamples = 238\nvalue = 366.702"] ;
364 -> 365 ;
366 [label="mse = 1254.991\nsamples = 1963\nvalue = 340.5"] ;
364 -> 366 ;
367 [label="X[37] <= 104.294\nmse = 1791.928\nsamples = 4132\nvalue = 359.276"] ;
363 -> 367 ;
368 [label="mse = 1599.575\nsamples = 3041\nvalue = 354.913"] ;
367 -> 368 ;
369 [label="mse = 2127.119\nsamples = 1091\nvalue = 371.437"] ;
367 -> 369 ;
370 [label="X[19] <= 4.5\nmse = 2544.542\nsamples = 1508\nvalue = 400.131"] ;
354 -> 370 ;
371 [label="X[27] <= 30.0\nmse = 1817.091\nsamples = 526\nvalue = 371.186"] ;
370 -> 371 ;
372 [label="X[33] <= 2.54\nmse = 1547.456\nsamples = 498\nvalue = 375.363"] ;
371 -> 372 ;
373 [label="mse = 1334.615\nsamples = 460\nvalue = 379.228"] ;
372 -> 373 ;
374 [label="mse = 1754.349\nsamples = 38\nvalue = 328.579"] ;
372 -> 374 ;
375 [label="X[44] <= 240.113\nmse = 782.881\nsamples = 28\nvalue = 296.893"] ;
371 -> 375 ;
376 [label="mse = 95.36\nsamples = 5\nvalue = 267.2"] ;
375 -> 376 ;
377 [label="mse = 699.009\nsamples = 23\nvalue = 303.348"] ;
375 -> 377 ;
378 [label="X[24] <= 82.5\nmse = 2245.05\nsamples = 982\nvalue = 415.635"] ;
370 -> 378 ;
379 [label="X[37] <= 100.01\nmse = 1942.731\nsamples = 380\nvalue = 431.895"] ;
378 -> 379 ;
380 [label="mse = 1740.718\nsamples = 325\nvalue = 425.489"] ;
379 -> 380 ;
381 [label="mse = 1461.317\nsamples = 55\nvalue = 469.745"] ;
379 -> 381 ;
382 [label="X[27] <= 36.0\nmse = 2163.672\nsamples = 602\nvalue = 405.372"] ;
378 -> 382 ;
383 [label="mse = 2004.118\nsamples = 589\nvalue = 407.346"] ;
382 -> 383 ;
384 [label="mse = 1214.994\nsamples = 13\nvalue = 315.923"] ;
382 -> 384 ;
385 [label="X[16] <= 0.5\nmse = 4317.176\nsamples = 68410\nvalue = 373.248"] ;
257 -> 385 ;
386 [label="X[22] <= 365.759\nmse = 3449.385\nsamples = 35636\nvalue = 342.794"] ;
385 -> 386 ;
387 [label="X[46] <= 11.5\nmse = 2792.411\nsamples = 21295\nvalue = 327.396"] ;
386 -> 387 ;
388 [label="X[44] <= 274.606\nmse = 1982.746\nsamples = 19398\nvalue = 322.275"] ;
387 -> 388 ;
389 [label="X[5] <= 0.5\nmse = 1647.836\nsamples = 5962\nvalue = 303.895"] ;
388 -> 389 ;
390 [label="X[3] <= 0.5\nmse = 1456.301\nsamples = 5127\nvalue = 298.274"] ;
389 -> 390 ;
391 [label="mse = 1425.619\nsamples = 4537\nvalue = 295.342"] ;
390 -> 391 ;
392 [label="mse = 1118.035\nsamples = 590\nvalue = 320.815"] ;
390 -> 392 ;
393 [label="X[19] <= 17.5\nmse = 1438.439\nsamples = 835\nvalue = 338.412"] ;
389 -> 393 ;
394 [label="mse = 1513.919\nsamples = 459\nvalue = 350.837"] ;
393 -> 394 ;
395 [label="mse = 927.802\nsamples = 376\nvalue = 323.245"] ;
393 -> 395 ;
396 [label="X[22] <= 340.354\nmse = 1914.927\nsamples = 13436\nvalue = 330.431"] ;
388 -> 396 ;
397 [label="X[8] <= 0.5\nmse = 1508.291\nsamples = 5524\nvalue = 318.011"] ;
396 -> 397 ;
398 [label="mse = 1465.426\nsamples = 4960\nvalue = 320.855"] ;
397 -> 398 ;
399 [label="mse = 1188.582\nsamples = 564\nvalue = 293.0"] ;
397 -> 399 ;
400 [label="X[8] <= 0.5\nmse = 2015.923\nsamples = 7912\nvalue = 339.103"] ;
396 -> 400 ;
401 [label="mse = 1932.405\nsamples = 6858\nvalue = 343.331"] ;
400 -> 401 ;
402 [label="mse = 1686.219\nsamples = 1054\nvalue = 311.593"] ;
400 -> 402 ;
403 [label="X[24] <= 62.5\nmse = 8062.402\nsamples = 1897\nvalue = 379.753"] ;
387 -> 403 ;
404 [label="X[35] <= 11045.5\nmse = 1876.746\nsamples = 60\nvalue = 235.767"] ;
403 -> 404 ;
405 [label="X[44] <= 267.717\nmse = 1003.728\nsamples = 9\nvalue = 180.778"] ;
404 -> 405 ;
406 [label="mse = 450.56\nsamples = 5\nvalue = 158.2"] ;
405 -> 406 ;
407 [label="mse = 261.5\nsamples = 4\nvalue = 209.0"] ;
405 -> 407 ;
408 [label="X[32] <= 977.0\nmse = 1403.033\nsamples = 51\nvalue = 245.471"] ;
404 -> 408 ;
409 [label="mse = 1725.322\nsamples = 17\nvalue = 222.824"] ;
408 -> 409 ;
410 [label="mse = 857.222\nsamples = 34\nvalue = 256.794"] ;
408 -> 410 ;
411 [label="X[19] <= 11.5\nmse = 7565.173\nsamples = 1837\nvalue = 384.456"] ;
403 -> 411 ;
412 [label="X[9] <= 0.5\nmse = 6185.799\nsamples = 1712\nvalue = 374.933"] ;
411 -> 412 ;
413 [label="mse = 5690.232\nsamples = 1491\nvalue = 384.753"] ;
412 -> 413 ;
414 [label="mse = 4490.242\nsamples = 221\nvalue = 308.688"] ;
412 -> 414 ;
415 [label="X[42] <= 582.5\nmse = 8206.8\nsamples = 125\nvalue = 514.872"] ;
411 -> 415 ;
416 [label="mse = 4375.021\nsamples = 43\nvalue = 450.953"] ;
415 -> 416 ;
417 [label="mse = 6950.238\nsamples = 82\nvalue = 548.39"] ;
415 -> 417 ;
418 [label="X[46] <= 11.5\nmse = 3550.009\nsamples = 14341\nvalue = 365.66"] ;
386 -> 418 ;
419 [label="X[8] <= 0.5\nmse = 2472.691\nsamples = 13050\nvalue = 359.885"] ;
418 -> 419 ;
420 [label="X[4] <= 0.5\nmse = 2482.997\nsamples = 10407\nvalue = 365.08"] ;
419 -> 420 ;
421 [label="X[22] <= 382.865\nmse = 2260.57\nsamples = 8121\nvalue = 372.477"] ;
420 -> 421 ;
422 [label="mse = 1944.054\nsamples = 4157\nvalue = 362.087"] ;
421 -> 422 ;
423 [label="mse = 2360.549\nsamples = 3964\nvalue = 383.374"] ;
421 -> 423 ;
424 [label="X[44] <= 318.817\nmse = 2388.277\nsamples = 2286\nvalue = 338.803"] ;
420 -> 424 ;
425 [label="mse = 2177.436\nsamples = 2164\nvalue = 336.07"] ;
424 -> 425 ;
426 [label="mse = 3646.558\nsamples = 122\nvalue = 387.27"] ;
424 -> 426 ;
427 [label="X[46] <= 1.5\nmse = 1907.357\nsamples = 2643\nvalue = 339.428"] ;
419 -> 427 ;
428 [label="X[26] <= 16.0\nmse = 3469.292\nsamples = 198\nvalue = 298.237"] ;
427 -> 428 ;
429 [label="mse = 2357.362\nsamples = 160\nvalue = 314.725"] ;
428 -> 429 ;
430 [label="mse = 2187.15\nsamples = 38\nvalue = 228.816"] ;
428 -> 430 ;
431 [label="X[37] <= 156.582\nmse = 1632.341\nsamples = 2445\nvalue = 342.764"] ;
427 -> 431 ;
432 [label="mse = 1513.465\nsamples = 2415\nvalue = 341.627"] ;
431 -> 432 ;
433 [label="mse = 2712.756\nsamples = 30\nvalue = 434.333"] ;
431 -> 433 ;
434 [label="X[24] <= 62.5\nmse = 10695.723\nsamples = 1291\nvalue = 424.031"] ;
418 -> 434 ;
435 [label="X[32] <= 3248.5\nmse = 2575.475\nsamples = 53\nvalue = 249.358"] ;
434 -> 435 ;
436 [label="X[44] <= 272.246\nmse = 1522.201\nsamples = 36\nvalue = 231.278"] ;
435 -> 436 ;
437 [label="mse = 462.25\nsamples = 2\nvalue = 157.5"] ;
436 -> 437 ;
438 [label="mse = 1245.53\nsamples = 34\nvalue = 235.618"] ;
436 -> 438 ;
439 [label="X[42] <= 629.5\nmse = 2647.64\nsamples = 17\nvalue = 287.647"] ;
435 -> 439 ;
440 [label="mse = 38.188\nsamples = 4\nvalue = 222.75"] ;
439 -> 440 ;
441 [label="mse = 1755.929\nsamples = 13\nvalue = 307.615"] ;
439 -> 441 ;
442 [label="X[19] <= 11.5\nmse = 9681.256\nsamples = 1238\nvalue = 431.509"] ;
434 -> 442 ;
443 [label="X[5] <= 0.5\nmse = 8277.703\nsamples = 1152\nvalue = 422.515"] ;
442 -> 443 ;
444 [label="mse = 7772.458\nsamples = 827\nvalue = 404.496"] ;
443 -> 444 ;
445 [label="mse = 6634.811\nsamples = 325\nvalue = 468.366"] ;
443 -> 445 ;
446 [label="X[42] <= 690.0\nmse = 12883.43\nsamples = 86\nvalue = 551.988"] ;
442 -> 446 ;
447 [label="mse = 6775.166\nsamples = 60\nvalue = 507.967"] ;
446 -> 447 ;
448 [label="mse = 12187.09\nsamples = 26\nvalue = 653.577"] ;
446 -> 448 ;
449 [label="X[22] <= 358.67\nmse = 3155.821\nsamples = 32774\nvalue = 406.362"] ;
385 -> 449 ;
450 [label="X[46] <= 11.5\nmse = 2332.664\nsamples = 17146\nvalue = 385.222"] ;
449 -> 450 ;
451 [label="X[22] <= 340.19\nmse = 1918.002\nsamples = 15712\nvalue = 380.139"] ;
450 -> 451 ;
452 [label="X[37] <= 99.082\nmse = 1587.953\nsamples = 8471\nvalue = 369.792"] ;
451 -> 452 ;
453 [label="X[29] <= 65.5\nmse = 1368.684\nsamples = 6229\nvalue = 364.938"] ;
452 -> 453 ;
454 [label="mse = 1414.086\nsamples = 5029\nvalue = 367.835"] ;
453 -> 454 ;
455 [label="mse = 995.873\nsamples = 1200\nvalue = 352.798"] ;
453 -> 455 ;
456 [label="X[28] <= -4.5\nmse = 1949.874\nsamples = 2242\nvalue = 383.276"] ;
452 -> 456 ;
457 [label="mse = 5717.407\nsamples = 119\nvalue = 427.361"] ;
456 -> 457 ;
458 [label="mse = 1623.648\nsamples = 2123\nvalue = 380.805"] ;
456 -> 458 ;
459 [label="X[37] <= 98.167\nmse = 2032.34\nsamples = 7241\nvalue = 392.243"] ;
451 -> 459 ;
460 [label="X[29] <= 68.5\nmse = 1561.719\nsamples = 4271\nvalue = 383.017"] ;
459 -> 460 ;
461 [label="mse = 1579.599\nsamples = 3659\nvalue = 385.691"] ;
460 -> 461 ;
462 [label="mse = 1156.53\nsamples = 612\nvalue = 367.031"] ;
460 -> 462 ;
463 [label="X[28] <= -1.5\nmse = 2410.644\nsamples = 2970\nvalue = 405.512"] ;
459 -> 463 ;
464 [label="mse = 4208.013\nsamples = 371\nvalue = 435.485"] ;
463 -> 464 ;
465 [label="mse = 2007.524\nsamples = 2599\nvalue = 401.233"] ;
463 -> 465 ;
466 [label="X[19] <= 4.5\nmse = 3491.029\nsamples = 1434\nvalue = 440.916"] ;
450 -> 466 ;
467 [label="X[27] <= 30.0\nmse = 3027.303\nsamples = 502\nvalue = 408.227"] ;
466 -> 467 ;
468 [label="X[33] <= 2.54\nmse = 2642.716\nsamples = 469\nvalue = 414.083"] ;
467 -> 468 ;
469 [label="mse = 2303.239\nsamples = 433\nvalue = 419.367"] ;
468 -> 469 ;
470 [label="mse = 2350.749\nsamples = 36\nvalue = 350.528"] ;
468 -> 470 ;
471 [label="X[43] <= 154.529\nmse = 1078.97\nsamples = 33\nvalue = 325.0"] ;
467 -> 471 ;
472 [label="mse = 755.336\nsamples = 27\nvalue = 315.185"] ;
471 -> 472 ;
473 [label="mse = 151.139\nsamples = 6\nvalue = 369.167"] ;
471 -> 473 ;
474 [label="X[24] <= 72.5\nmse = 2855.219\nsamples = 932\nvalue = 458.524"] ;
466 -> 474 ;
475 [label="X[19] <= 6.5\nmse = 3082.22\nsamples = 133\nvalue = 495.226"] ;
474 -> 475 ;
476 [label="mse = 686.472\nsamples = 6\nvalue = 373.167"] ;
475 -> 476 ;
477 [label="mse = 2458.291\nsamples = 127\nvalue = 500.992"] ;
475 -> 477 ;
478 [label="X[37] <= 91.835\nmse = 2555.885\nsamples = 799\nvalue = 452.414"] ;
474 -> 478 ;
479 [label="mse = 1873.204\nsamples = 374\nvalue = 437.045"] ;
478 -> 479 ;
480 [label="mse = 2765.874\nsamples = 425\nvalue = 465.939"] ;
478 -> 480 ;
481 [label="X[46] <= 11.5\nmse = 3030.718\nsamples = 15628\nvalue = 429.555"] ;
449 -> 481 ;
482 [label="X[22] <= 381.686\nmse = 2466.452\nsamples = 14329\nvalue = 423.507"] ;
481 -> 482 ;
483 [label="X[37] <= 109.581\nmse = 2202.246\nsamples = 8007\nvalue = 413.027"] ;
482 -> 483 ;
484 [label="X[29] <= 68.5\nmse = 1815.809\nsamples = 5617\nvalue = 406.346"] ;
483 -> 484 ;
485 [label="mse = 1765.059\nsamples = 4698\nvalue = 409.959"] ;
484 -> 485 ;
486 [label="mse = 1667.373\nsamples = 919\nvalue = 387.876"] ;
484 -> 486 ;
487 [label="X[39] <= 0.5\nmse = 2758.96\nsamples = 2390\nvalue = 428.73"] ;
483 -> 487 ;
488 [label="mse = 2652.529\nsamples = 2318\nvalue = 426.809"] ;
487 -> 488 ;
489 [label="mse = 2240.799\nsamples = 72\nvalue = 490.583"] ;
487 -> 489 ;
490 [label="X[37] <= 107.325\nmse = 2485.844\nsamples = 6322\nvalue = 436.779"] ;
482 -> 490 ;
491 [label="X[29] <= 64.5\nmse = 2017.168\nsamples = 3798\nvalue = 428.155"] ;
490 -> 491 ;
492 [label="mse = 1983.607\nsamples = 3054\nvalue = 432.875"] ;
491 -> 492 ;
493 [label="mse = 1687.958\nsamples = 744\nvalue = 408.777"] ;
491 -> 493 ;
494 [label="X[35] <= 12502.0\nmse = 2910.76\nsamples = 2524\nvalue = 449.756"] ;
490 -> 494 ;
495 [label="mse = 2619.041\nsamples = 895\nvalue = 436.941"] ;
494 -> 495 ;
496 [label="mse = 2931.231\nsamples = 1629\nvalue = 456.797"] ;
494 -> 496 ;
497 [label="X[19] <= 4.5\nmse = 4400.551\nsamples = 1299\nvalue = 496.27"] ;
481 -> 497 ;
498 [label="X[37] <= 106.312\nmse = 3455.502\nsamples = 485\nvalue = 462.726"] ;
497 -> 498 ;
499 [label="X[21] <= 37.5\nmse = 2627.644\nsamples = 308\nvalue = 446.549"] ;
498 -> 499 ;
500 [label="mse = 2004.668\nsamples = 274\nvalue = 455.613"] ;
499 -> 500 ;
501 [label="mse = 1649.838\nsamples = 34\nvalue = 373.5"] ;
499 -> 501 ;
502 [label="X[37] <= 138.307\nmse = 3648.267\nsamples = 177\nvalue = 490.876"] ;
498 -> 502 ;
503 [label="mse = 2941.346\nsamples = 161\nvalue = 484.404"] ;
502 -> 503 ;
504 [label="mse = 6099.0\nsamples = 16\nvalue = 556.0"] ;
502 -> 504 ;
505 [label="X[42] <= 687.5\nmse = 3893.734\nsamples = 814\nvalue = 516.257"] ;
497 -> 505 ;
506 [label="X[37] <= 104.825\nmse = 2713.2\nsamples = 439\nvalue = 494.358"] ;
505 -> 506 ;
507 [label="mse = 2060.731\nsamples = 314\nvalue = 480.624"] ;
506 -> 507 ;
508 [label="mse = 2688.283\nsamples = 125\nvalue = 528.856"] ;
506 -> 508 ;
509 [label="X[43] <= 125.284\nmse = 4057.093\nsamples = 375\nvalue = 541.893"] ;
505 -> 509 ;
510 [label="mse = 794.286\nsamples = 14\nvalue = 428.0"] ;
509 -> 510 ;
511 [label="mse = 3661.062\nsamples = 361\nvalue = 546.31"] ;
509 -> 511 ;
512 [label="X[22] <= 792.536\nmse = 43738.066\nsamples = 61661\nvalue = 571.939"] ;
0 -> 512 [labeldistance=2.5, labelangle=-45, headlabel="False"] ;
513 [label="X[22] <= 543.744\nmse = 16678.699\nsamples = 56958\nvalue = 529.051"] ;
512 -> 513 ;
514 [label="X[16] <= 0.5\nmse = 7352.101\nsamples = 39924\nvalue = 473.926"] ;
513 -> 514 ;
515 [label="X[22] <= 466.75\nmse = 6254.58\nsamples = 21008\nvalue = 438.676"] ;
514 -> 515 ;
516 [label="X[46] <= 11.5\nmse = 4626.517\nsamples = 12813\nvalue = 412.814"] ;
515 -> 516 ;
517 [label="X[22] <= 431.906\nmse = 3087.072\nsamples = 11655\nvalue = 405.741"] ;
516 -> 517 ;
518 [label="X[4] <= 0.5\nmse = 2800.903\nsamples = 5945\nvalue = 390.062"] ;
517 -> 518 ;
519 [label="X[8] <= 0.5\nmse = 2583.822\nsamples = 4480\nvalue = 397.48"] ;
518 -> 519 ;
520 [label="mse = 2284.335\nsamples = 3471\nvalue = 405.886"] ;
519 -> 520 ;
521 [label="mse = 2534.86\nsamples = 1009\nvalue = 368.564"] ;
519 -> 521 ;
522 [label="X[17] <= 0.5\nmse = 2781.843\nsamples = 1465\nvalue = 367.377"] ;
518 -> 522 ;
523 [label="mse = 2427.861\nsamples = 1461\nvalue = 366.388"] ;
522 -> 523 ;
524 [label="mse = 1306.75\nsamples = 4\nvalue = 728.5"] ;
522 -> 524 ;
525 [label="X[44] <= 347.955\nmse = 2862.601\nsamples = 5710\nvalue = 422.065"] ;
517 -> 525 ;
526 [label="X[37] <= 141.828\nmse = 2899.538\nsamples = 1325\nvalue = 397.638"] ;
525 -> 526 ;
527 [label="mse = 2689.338\nsamples = 1111\nvalue = 403.161"] ;
526 -> 527 ;
528 [label="mse = 3010.167\nsamples = 214\nvalue = 368.963"] ;
526 -> 528 ;
529 [label="X[8] <= 0.5\nmse = 2616.663\nsamples = 4385\nvalue = 429.446"] ;
525 -> 529 ;
530 [label="mse = 2580.485\nsamples = 3644\nvalue = 434.386"] ;
529 -> 530 ;
531 [label="mse = 2084.243\nsamples = 741\nvalue = 405.15"] ;
529 -> 531 ;
532 [label="X[24] <= 62.5\nmse = 14549.547\nsamples = 1158\nvalue = 484.001"] ;
516 -> 532 ;
533 [label="X[37] <= 85.154\nmse = 2231.035\nsamples = 39\nvalue = 271.205"] ;
532 -> 533 ;
534 [label="X[42] <= 734.5\nmse = 1843.34\nsamples = 32\nvalue = 282.688"] ;
533 -> 534 ;
535 [label="mse = 1546.408\nsamples = 17\nvalue = 263.059"] ;
534 -> 535 ;
536 [label="mse = 1248.329\nsamples = 15\nvalue = 304.933"] ;
534 -> 536 ;
537 [label="X[43] <= 175.444\nmse = 645.347\nsamples = 7\nvalue = 218.714"] ;
533 -> 537 ;
538 [label="mse = 0.0\nsamples = 1\nvalue = 268.0"] ;
537 -> 538 ;
539 [label="mse = 280.583\nsamples = 6\nvalue = 210.5"] ;
537 -> 539 ;
540 [label="X[19] <= 10.5\nmse = 13345.68\nsamples = 1119\nvalue = 491.417"] ;
532 -> 540 ;
541 [label="X[42] <= 860.5\nmse = 10763.244\nsamples = 984\nvalue = 476.137"] ;
540 -> 541 ;
542 [label="mse = 8246.701\nsamples = 677\nvalue = 453.84"] ;
541 -> 542 ;
543 [label="mse = 12798.857\nsamples = 307\nvalue = 525.306"] ;
541 -> 543 ;
544 [label="X[42] <= 748.5\nmse = 18062.49\nsamples = 135\nvalue = 602.793"] ;
540 -> 544 ;
545 [label="mse = 7236.738\nsamples = 76\nvalue = 547.158"] ;
544 -> 545 ;
546 [label="mse = 22884.587\nsamples = 59\nvalue = 674.458"] ;
544 -> 546 ;
547 [label="X[46] <= 11.5\nmse = 6119.142\nsamples = 8195\nvalue = 479.113"] ;
515 -> 547 ;
548 [label="X[44] <= 408.31\nmse = 4215.026\nsamples = 7455\nvalue = 471.616"] ;
547 -> 548 ;
549 [label="X[5] <= 0.5\nmse = 3749.338\nsamples = 3010\nvalue = 449.858"] ;
548 -> 549 ;
550 [label="X[44] <= 368.529\nmse = 3307.483\nsamples = 2087\nvalue = 436.082"] ;
549 -> 550 ;
551 [label="mse = 3007.053\nsamples = 632\nvalue = 416.253"] ;
550 -> 551 ;
552 [label="mse = 3193.002\nsamples = 1455\nvalue = 444.696"] ;
550 -> 552 ;
553 [label="X[19] <= 19.5\nmse = 3349.105\nsamples = 923\nvalue = 481.007"] ;
549 -> 553 ;
554 [label="mse = 2951.215\nsamples = 592\nvalue = 494.355"] ;
553 -> 554 ;
555 [label="mse = 3172.121\nsamples = 331\nvalue = 457.133"] ;
553 -> 555 ;
556 [label="X[22] <= 497.385\nmse = 3992.729\nsamples = 4445\nvalue = 486.349"] ;
548 -> 556 ;
557 [label="X[35] <= 10368.0\nmse = 3331.009\nsamples = 1698\nvalue = 468.018"] ;
556 -> 557 ;
558 [label="mse = 3148.614\nsamples = 77\nvalue = 408.494"] ;
557 -> 558 ;
559 [label="mse = 3163.375\nsamples = 1621\nvalue = 470.845"] ;
557 -> 559 ;
560 [label="X[8] <= 0.5\nmse = 4065.633\nsamples = 2747\nvalue = 497.681"] ;
556 -> 560 ;
561 [label="mse = 3888.614\nsamples = 2133\nvalue = 506.192"] ;
560 -> 561 ;
562 [label="mse = 3554.631\nsamples = 614\nvalue = 468.112"] ;
560 -> 562 ;
563 [label="X[24] <= 62.5\nmse = 19030.754\nsamples = 740\nvalue = 554.643"] ;
547 -> 563 ;
564 [label="X[36] <= 1178.5\nmse = 2716.804\nsamples = 29\nvalue = 288.241"] ;
563 -> 564 ;
565 [label="X[43] <= 206.256\nmse = 378.857\nsamples = 7\nvalue = 240.0"] ;
564 -> 565 ;
566 [label="mse = 66.25\nsamples = 4\nvalue = 254.5"] ;
565 -> 566 ;
567 [label="mse = 141.556\nsamples = 3\nvalue = 220.667"] ;
565 -> 567 ;
568 [label="X[44] <= 428.332\nmse = 2484.605\nsamples = 22\nvalue = 303.591"] ;
564 -> 568 ;
569 [label="mse = 2169.129\nsamples = 15\nvalue = 289.933"] ;
568 -> 569 ;
570 [label="mse = 1904.408\nsamples = 7\nvalue = 332.857"] ;
568 -> 570 ;
571 [label="X[9] <= 0.5\nmse = 16683.398\nsamples = 711\nvalue = 565.509"] ;
563 -> 571 ;
572 [label="X[24] <= 78.5\nmse = 15209.714\nsamples = 642\nvalue = 578.221"] ;
571 -> 572 ;
573 [label="mse = 27211.35\nsamples = 153\nvalue = 649.752"] ;
572 -> 573 ;
574 [label="mse = 9352.805\nsamples = 489\nvalue = 555.84"] ;
572 -> 574 ;
575 [label="X[25] <= 6.5\nmse = 14902.004\nsamples = 69\nvalue = 447.232"] ;
571 -> 575 ;
576 [label="mse = 5093.955\nsamples = 47\nvalue = 517.213"] ;
575 -> 576 ;
577 [label="mse = 3041.471\nsamples = 22\nvalue = 297.727"] ;
575 -> 577 ;
578 [label="X[22] <= 460.173\nmse = 5658.526\nsamples = 18916\nvalue = 513.073"] ;
514 -> 578 ;
579 [label="X[46] <= 11.5\nmse = 3752.609\nsamples = 11259\nvalue = 483.239"] ;
578 -> 579 ;
580 [label="X[22] <= 442.326\nmse = 2837.651\nsamples = 10335\nvalue = 475.896"] ;
579 -> 580 ;
581 [label="X[22] <= 417.084\nmse = 2713.841\nsamples = 7441\nvalue = 467.313"] ;
580 -> 581 ;
582 [label="X[29] <= 60.5\nmse = 2884.355\nsamples = 2568\nvalue = 453.593"] ;
581 -> 582 ;
583 [label="mse = 2859.136\nsamples = 1918\nvalue = 460.448"] ;
582 -> 583 ;
584 [label="mse = 2411.054\nsamples = 650\nvalue = 433.368"] ;
582 -> 584 ;
585 [label="X[29] <= 68.5\nmse = 2472.512\nsamples = 4873\nvalue = 474.543"] ;
581 -> 585 ;
586 [label="mse = 2516.567\nsamples = 4104\nvalue = 478.487"] ;
585 -> 586 ;
587 [label="mse = 1711.374\nsamples = 769\nvalue = 453.495"] ;
585 -> 587 ;
588 [label="X[37] <= 124.931\nmse = 2479.587\nsamples = 2894\nvalue = 497.964"] ;
580 -> 588 ;
589 [label="X[29] <= 68.5\nmse = 2272.835\nsamples = 1832\nvalue = 488.481"] ;
588 -> 589 ;
590 [label="mse = 2200.886\nsamples = 1511\nvalue = 493.858"] ;
589 -> 590 ;
591 [label="mse = 1835.01\nsamples = 321\nvalue = 463.174"] ;
589 -> 591 ;
592 [label="X[28] <= -4.5\nmse = 2413.544\nsamples = 1062\nvalue = 514.322"] ;
588 -> 592 ;
593 [label="mse = 4164.532\nsamples = 65\nvalue = 549.262"] ;
592 -> 593 ;
594 [label="mse = 2214.61\nsamples = 997\nvalue = 512.044"] ;
592 -> 594 ;
595 [label="X[42] <= 845.5\nmse = 6638.758\nsamples = 924\nvalue = 565.365"] ;
579 -> 595 ;
596 [label="X[19] <= 5.5\nmse = 4239.478\nsamples = 616\nvalue = 542.149"] ;
595 -> 596 ;
597 [label="X[13] <= 0.5\nmse = 3347.495\nsamples = 291\nvalue = 511.701"] ;
596 -> 597 ;
598 [label="mse = 2206.302\nsamples = 219\nvalue = 525.758"] ;
597 -> 598 ;
599 [label="mse = 4389.469\nsamples = 72\nvalue = 468.944"] ;
597 -> 599 ;
600 [label="X[37] <= 118.433\nmse = 3464.765\nsamples = 325\nvalue = 569.412"] ;
596 -> 600 ;
601 [label="mse = 2909.361\nsamples = 197\nvalue = 549.579"] ;
600 -> 601 ;
602 [label="mse = 2782.355\nsamples = 128\nvalue = 599.938"] ;
600 -> 602 ;
603 [label="X[19] <= 4.5\nmse = 8203.598\nsamples = 308\nvalue = 611.795"] ;
595 -> 603 ;
604 [label="X[13] <= 0.5\nmse = 6640.813\nsamples = 122\nvalue = 555.664"] ;
603 -> 604 ;
605 [label="mse = 3236.163\nsamples = 84\nvalue = 588.833"] ;
604 -> 605 ;
606 [label="mse = 6358.751\nsamples = 38\nvalue = 482.342"] ;
604 -> 606 ;
607 [label="X[34] <= 12604.5\nmse = 5806.506\nsamples = 186\nvalue = 648.613"] ;
603 -> 607 ;
608 [label="mse = 4923.985\nsamples = 122\nvalue = 666.311"] ;
607 -> 608 ;
609 [label="mse = 5753.453\nsamples = 64\nvalue = 614.875"] ;
607 -> 609 ;
610 [label="X[46] <= 11.5\nmse = 5227.619\nsamples = 7657\nvalue = 556.943"] ;
578 -> 610 ;
611 [label="X[22] <= 500.683\nmse = 3807.315\nsamples = 7023\nvalue = 547.653"] ;
610 -> 611 ;
612 [label="X[37] <= 157.811\nmse = 3310.844\nsamples = 4091\nvalue = 530.822"] ;
611 -> 612 ;
613 [label="X[29] <= 72.5\nmse = 2904.899\nsamples = 3516\nvalue = 525.648"] ;
612 -> 613 ;
614 [label="mse = 2835.887\nsamples = 3085\nvalue = 529.509"] ;
613 -> 614 ;
615 [label="mse = 2528.255\nsamples = 431\nvalue = 498.009"] ;
613 -> 615 ;
616 [label="X[24] <= 70.5\nmse = 4628.395\nsamples = 575\nvalue = 562.461"] ;
612 -> 616 ;
617 [label="mse = 5262.463\nsamples = 241\nvalue = 582.73"] ;
616 -> 617 ;
618 [label="mse = 3660.521\nsamples = 334\nvalue = 547.835"] ;
616 -> 618 ;
619 [label="X[22] <= 519.635\nmse = 3553.305\nsamples = 2932\nvalue = 571.136"] ;
611 -> 619 ;
620 [label="X[44] <= 383.288\nmse = 3341.875\nsamples = 1651\nvalue = 561.773"] ;
619 -> 620 ;
621 [label="mse = 3295.619\nsamples = 282\nvalue = 591.071"] ;
620 -> 621 ;
622 [label="mse = 3138.173\nsamples = 1369\nvalue = 555.738"] ;
620 -> 622 ;
623 [label="X[29] <= 67.5\nmse = 3567.197\nsamples = 1281\nvalue = 583.204"] ;
619 -> 623 ;
624 [label="mse = 3558.448\nsamples = 1082\nvalue = 587.849"] ;
623 -> 624 ;
625 [label="mse = 2859.409\nsamples = 199\nvalue = 557.945"] ;
623 -> 625 ;
626 [label="X[42] <= 799.0\nmse = 9413.489\nsamples = 634\nvalue = 659.856"] ;
610 -> 626 ;
627 [label="X[42] <= 721.5\nmse = 3916.288\nsamples = 197\nvalue = 598.447"] ;
626 -> 627 ;
628 [label="X[43] <= 193.486\nmse = 2775.633\nsamples = 39\nvalue = 545.462"] ;
627 -> 628 ;
629 [label="mse = 1591.178\nsamples = 26\nvalue = 572.769"] ;
628 -> 629 ;
630 [label="mse = 670.284\nsamples = 13\nvalue = 490.846"] ;
628 -> 630 ;
631 [label="X[13] <= 0.5\nmse = 3333.819\nsamples = 158\nvalue = 611.525"] ;
627 -> 631 ;
632 [label="mse = 2808.022\nsamples = 139\nvalue = 621.388"] ;
631 -> 632 ;
633 [label="mse = 1262.127\nsamples = 19\nvalue = 539.368"] ;
631 -> 633 ;
634 [label="X[19] <= 5.5\nmse = 9425.209\nsamples = 437\nvalue = 687.54"] ;
626 -> 634 ;
635 [label="X[42] <= 1096.5\nmse = 7322.447\nsamples = 207\nvalue = 640.043"] ;
634 -> 635 ;
636 [label="mse = 4969.17\nsamples = 163\nvalue = 620.656"] ;
635 -> 636 ;
637 [label="mse = 9489.754\nsamples = 44\nvalue = 711.864"] ;
635 -> 637 ;
638 [label="X[24] <= 75.5\nmse = 7460.065\nsamples = 230\nvalue = 730.287"] ;
634 -> 638 ;
639 [label="mse = 4566.94\nsamples = 53\nvalue = 795.755"] ;
638 -> 639 ;
640 [label="mse = 6658.691\nsamples = 177\nvalue = 710.684"] ;
638 -> 640 ;
641 [label="X[22] <= 664.144\nmse = 14722.547\nsamples = 17034\nvalue = 658.254"] ;
513 -> 641 ;
642 [label="X[16] <= 0.5\nmse = 11174.49\nsamples = 11232\nvalue = 618.472"] ;
641 -> 642 ;
643 [label="X[46] <= 11.5\nmse = 9934.967\nsamples = 6174\nvalue = 576.497"] ;
642 -> 643 ;
644 [label="X[22] <= 613.392\nmse = 7324.977\nsamples = 5610\nvalue = 566.839"] ;
643 -> 644 ;
645 [label="X[44] <= 482.328\nmse = 6034.167\nsamples = 3772\nvalue = 545.279"] ;
644 -> 645 ;
646 [label="X[5] <= 0.5\nmse = 5673.053\nsamples = 2201\nvalue = 527.699"] ;
645 -> 646 ;
647 [label="mse = 5065.946\nsamples = 1432\nvalue = 513.226"] ;
646 -> 647 ;
648 [label="mse = 5687.059\nsamples = 769\nvalue = 554.651"] ;
646 -> 648 ;
649 [label="X[22] <= 578.059\nmse = 5500.477\nsamples = 1571\nvalue = 569.909"] ;
645 -> 649 ;
650 [label="mse = 4454.947\nsamples = 704\nvalue = 553.31"] ;
649 -> 650 ;
651 [label="mse = 5944.037\nsamples = 867\nvalue = 583.388"] ;
649 -> 651 ;
652 [label="X[43] <= 244.167\nmse = 7062.532\nsamples = 1838\nvalue = 611.083"] ;
644 -> 652 ;
653 [label="X[46] <= 1.5\nmse = 7574.699\nsamples = 509\nvalue = 636.012"] ;
652 -> 653 ;
654 [label="mse = 6754.284\nsamples = 26\nvalue = 568.846"] ;
653 -> 654 ;
655 [label="mse = 7362.95\nsamples = 483\nvalue = 639.627"] ;
653 -> 655 ;
656 [label="X[8] <= 0.5\nmse = 6537.215\nsamples = 1329\nvalue = 601.536"] ;
652 -> 656 ;
657 [label="mse = 6369.201\nsamples = 1014\nvalue = 610.249"] ;
656 -> 657 ;
658 [label="mse = 6047.069\nsamples = 315\nvalue = 573.489"] ;
656 -> 658 ;
659 [label="X[24] <= 62.5\nmse = 25737.592\nsamples = 564\nvalue = 672.573"] ;
643 -> 659 ;
660 [label="X[33] <= 0.125\nmse = 3902.941\nsamples = 17\nvalue = 333.0"] ;
659 -> 660 ;
661 [label="X[44] <= 437.441\nmse = 2522.354\nsamples = 12\nvalue = 309.75"] ;
660 -> 661 ;
662 [label="mse = 0.0\nsamples = 1\nvalue = 194.0"] ;
661 -> 662 ;
663 [label="mse = 1422.926\nsamples = 11\nvalue = 320.273"] ;
661 -> 663 ;
664 [label="X[22] <= 567.661\nmse = 2805.36\nsamples = 5\nvalue = 388.8"] ;
660 -> 664 ;
665 [label="mse = 1122.25\nsamples = 2\nvalue = 329.5"] ;
664 -> 665 ;
666 [label="mse = 20.222\nsamples = 3\nvalue = 428.333"] ;
664 -> 666 ;
667 [label="X[9] <= 0.5\nmse = 22721.145\nsamples = 547\nvalue = 683.126"] ;
659 -> 667 ;
668 [label="X[42] <= 1016.0\nmse = 19396.162\nsamples = 490\nvalue = 701.365"] ;
667 -> 668 ;
669 [label="mse = 11504.024\nsamples = 208\nvalue = 650.995"] ;
668 -> 669 ;
670 [label="mse = 21965.64\nsamples = 282\nvalue = 738.518"] ;
668 -> 670 ;
671 [label="X[19] <= 8.5\nmse = 23860.573\nsamples = 57\nvalue = 526.333"] ;
667 -> 671 ;
672 [label="mse = 4366.945\nsamples = 38\nvalue = 619.947"] ;
671 -> 672 ;
673 [label="mse = 10266.305\nsamples = 19\nvalue = 339.105"] ;
671 -> 673 ;
674 [label="X[46] <= 11.5\nmse = 7911.73\nsamples = 5058\nvalue = 669.708"] ;
642 -> 674 ;
675 [label="X[22] <= 588.521\nmse = 6380.739\nsamples = 4641\nvalue = 659.93"] ;
674 -> 675 ;
676 [label="X[22] <= 556.214\nmse = 5187.34\nsamples = 1863\nvalue = 627.118"] ;
675 -> 676 ;
677 [label="X[35] <= 11824.5\nmse = 5736.424\nsamples = 579\nvalue = 604.18"] ;
676 -> 677 ;
678 [label="mse = 3660.955\nsamples = 133\nvalue = 579.541"] ;
677 -> 678 ;
679 [label="mse = 6120.334\nsamples = 446\nvalue = 611.527"] ;
677 -> 679 ;
680 [label="X[24] <= 69.5\nmse = 4595.493\nsamples = 1284\nvalue = 637.461"] ;
676 -> 680 ;
681 [label="mse = 4795.685\nsamples = 551\nvalue = 656.345"] ;
680 -> 681 ;
682 [label="mse = 3975.453\nsamples = 733\nvalue = 623.266"] ;
680 -> 682 ;
683 [label="X[22] <= 626.87\nmse = 5974.801\nsamples = 2778\nvalue = 681.935"] ;
675 -> 683 ;
684 [label="X[24] <= 73.5\nmse = 5675.971\nsamples = 1864\nvalue = 668.898"] ;
683 -> 684 ;
685 [label="mse = 5742.447\nsamples = 938\nvalue = 683.956"] ;
684 -> 685 ;
686 [label="mse = 5146.247\nsamples = 926\nvalue = 653.644"] ;
684 -> 686 ;
687 [label="X[29] <= 52.5\nmse = 5530.606\nsamples = 914\nvalue = 708.524"] ;
683 -> 687 ;
688 [label="mse = 5522.059\nsamples = 591\nvalue = 719.975"] ;
687 -> 688 ;
689 [label="mse = 4867.384\nsamples = 323\nvalue = 687.573"] ;
687 -> 689 ;
690 [label="X[19] <= 5.5\nmse = 12043.582\nsamples = 417\nvalue = 778.535"] ;
674 -> 690 ;
691 [label="X[22] <= 594.308\nmse = 11519.262\nsamples = 198\nvalue = 738.98"] ;
690 -> 691 ;
692 [label="X[33] <= 5.46\nmse = 7971.252\nsamples = 83\nvalue = 687.602"] ;
691 -> 692 ;
693 [label="mse = 5436.214\nsamples = 81\nvalue = 694.605"] ;
692 -> 693 ;
694 [label="mse = 28224.0\nsamples = 2\nvalue = 404.0"] ;
692 -> 694 ;
695 [label="X[27] <= 26.5\nmse = 10799.866\nsamples = 115\nvalue = 776.061"] ;
691 -> 695 ;
696 [label="mse = 8647.624\nsamples = 104\nvalue = 792.721"] ;
695 -> 696 ;
697 [label="mse = 3712.975\nsamples = 11\nvalue = 618.545"] ;
695 -> 697 ;
698 [label="X[42] <= 1003.0\nmse = 9824.136\nsamples = 219\nvalue = 814.297"] ;
690 -> 698 ;
699 [label="X[42] <= 833.0\nmse = 5051.718\nsamples = 85\nvalue = 769.894"] ;
698 -> 699 ;
700 [label="mse = 1547.536\nsamples = 17\nvalue = 702.588"] ;
699 -> 700 ;
701 [label="mse = 4512.113\nsamples = 68\nvalue = 786.721"] ;
699 -> 701 ;
702 [label="X[15] <= 0.5\nmse = 10807.458\nsamples = 134\nvalue = 842.463"] ;
698 -> 702 ;
703 [label="mse = 8816.553\nsamples = 104\nvalue = 819.346"] ;
702 -> 703 ;
704 [label="mse = 9434.773\nsamples = 30\nvalue = 922.6"] ;
702 -> 704 ;
705 [label="X[16] <= 0.5\nmse = 12596.517\nsamples = 5802\nvalue = 735.267"] ;
641 -> 705 ;
706 [label="X[22] <= 735.936\nmse = 11806.434\nsamples = 3273\nvalue = 699.098"] ;
705 -> 706 ;
707 [label="X[46] <= 11.5\nmse = 10198.367\nsamples = 1899\nvalue = 665.598"] ;
706 -> 707 ;
708 [label="X[44] <= 599.331\nmse = 6792.699\nsamples = 1725\nvalue = 656.564"] ;
707 -> 708 ;
709 [label="X[8] <= 0.5\nmse = 5640.931\nsamples = 1095\nvalue = 636.458"] ;
708 -> 709 ;
710 [label="mse = 5112.652\nsamples = 776\nvalue = 645.836"] ;
709 -> 710 ;
711 [label="mse = 6191.671\nsamples = 319\nvalue = 613.646"] ;
709 -> 711 ;
712 [label="X[46] <= 2.5\nmse = 6870.796\nsamples = 630\nvalue = 691.51"] ;
708 -> 712 ;
713 [label="mse = 4717.038\nsamples = 64\nvalue = 645.156"] ;
712 -> 713 ;
714 [label="mse = 6843.904\nsamples = 566\nvalue = 696.751"] ;
712 -> 714 ;
715 [label="X[24] <= 62.5\nmse = 35131.878\nsamples = 174\nvalue = 755.155"] ;
707 -> 715 ;
716 [label="X[29] <= 45.5\nmse = 10709.728\nsamples = 9\nvalue = 345.778"] ;
715 -> 716 ;
717 [label="mse = 3706.122\nsamples = 7\nvalue = 391.143"] ;
716 -> 717 ;
718 [label="mse = 2809.0\nsamples = 2\nvalue = 187.0"] ;
716 -> 718 ;
719 [label="X[19] <= 10.5\nmse = 26824.116\nsamples = 165\nvalue = 777.485"] ;
715 -> 719 ;
720 [label="mse = 20539.924\nsamples = 139\nvalue = 747.403"] ;
719 -> 720 ;
721 [label="mse = 29718.521\nsamples = 26\nvalue = 938.308"] ;
719 -> 721 ;
722 [label="X[46] <= 11.5\nmse = 10334.084\nsamples = 1374\nvalue = 745.399"] ;
706 -> 722 ;
723 [label="X[22] <= 780.583\nmse = 7700.362\nsamples = 1239\nvalue = 738.206"] ;
722 -> 723 ;
724 [label="X[19] <= 22.5\nmse = 6837.024\nsamples = 1027\nvalue = 731.042"] ;
723 -> 724 ;
725 [label="mse = 6296.206\nsamples = 792\nvalue = 739.158"] ;
724 -> 725 ;
726 [label="mse = 7689.542\nsamples = 235\nvalue = 703.689"] ;
724 -> 726 ;
727 [label="X[17] <= 0.5\nmse = 10429.638\nsamples = 212\nvalue = 772.91"] ;
723 -> 727 ;
728 [label="mse = 9709.199\nsamples = 211\nvalue = 771.005"] ;
727 -> 728 ;
729 [label="mse = 0.0\nsamples = 1\nvalue = 1175.0"] ;
727 -> 729 ;
730 [label="X[17] <= 0.5\nmse = 29672.835\nsamples = 135\nvalue = 811.415"] ;
722 -> 730 ;
731 [label="X[2] <= 0.5\nmse = 22300.759\nsamples = 129\nvalue = 830.279"] ;
730 -> 731 ;
732 [label="mse = 17126.333\nsamples = 78\nvalue = 778.0"] ;
731 -> 732 ;
733 [label="mse = 19641.552\nsamples = 51\nvalue = 910.235"] ;
731 -> 733 ;
734 [label="X[43] <= 136.358\nmse = 16025.139\nsamples = 6\nvalue = 405.833"] ;
730 -> 734 ;
735 [label="mse = 4032.25\nsamples = 2\nvalue = 570.5"] ;
734 -> 735 ;
736 [label="mse = 1685.25\nsamples = 4\nvalue = 323.5"] ;
734 -> 736 ;
737 [label="X[22] <= 709.784\nmse = 9734.951\nsamples = 2529\nvalue = 782.076"] ;
705 -> 737 ;
738 [label="X[46] <= 11.5\nmse = 8435.483\nsamples = 1388\nvalue = 752.238"] ;
737 -> 738 ;
739 [label="X[37] <= 164.47\nmse = 7126.061\nsamples = 1273\nvalue = 742.581"] ;
738 -> 739 ;
740 [label="X[22] <= 676.495\nmse = 5616.086\nsamples = 678\nvalue = 726.81"] ;
739 -> 740 ;
741 [label="mse = 5209.865\nsamples = 319\nvalue = 709.169"] ;
740 -> 741 ;
742 [label="mse = 5454.829\nsamples = 359\nvalue = 742.485"] ;
740 -> 742 ;
743 [label="X[42] <= 1154.5\nmse = 8240.311\nsamples = 595\nvalue = 760.551"] ;
739 -> 743 ;
744 [label="mse = 7719.579\nsamples = 325\nvalue = 779.748"] ;
743 -> 744 ;
745 [label="mse = 7889.625\nsamples = 270\nvalue = 737.444"] ;
743 -> 745 ;
746 [label="X[43] <= 258.614\nmse = 10468.074\nsamples = 115\nvalue = 859.148"] ;
738 -> 746 ;
747 [label="X[37] <= 163.52\nmse = 3934.954\nsamples = 37\nvalue = 794.27"] ;
746 -> 747 ;
748 [label="mse = 2619.748\nsamples = 29\nvalue = 775.897"] ;
747 -> 748 ;
749 [label="mse = 3042.609\nsamples = 8\nvalue = 860.875"] ;
747 -> 749 ;
750 [label="X[19] <= 5.5\nmse = 10623.379\nsamples = 78\nvalue = 889.923"] ;
746 -> 750 ;
751 [label="mse = 6375.391\nsamples = 38\nvalue = 830.763"] ;
750 -> 751 ;
752 [label="mse = 8175.409\nsamples = 40\nvalue = 946.125"] ;
750 -> 752 ;
753 [label="X[46] <= 11.5\nmse = 8915.35\nsamples = 1141\nvalue = 818.372"] ;
737 -> 753 ;
754 [label="X[37] <= 172.272\nmse = 7545.107\nsamples = 1048\nvalue = 809.124"] ;
753 -> 754 ;
755 [label="X[42] <= 1151.0\nmse = 5851.378\nsamples = 558\nvalue = 784.224"] ;
754 -> 755 ;
756 [label="mse = 4248.026\nsamples = 370\nvalue = 798.962"] ;
755 -> 756 ;
757 [label="mse = 7738.075\nsamples = 188\nvalue = 755.218"] ;
755 -> 757 ;
758 [label="X[46] <= 8.5\nmse = 7963.792\nsamples = 490\nvalue = 837.48"] ;
754 -> 758 ;
759 [label="mse = 6713.518\nsamples = 345\nvalue = 849.971"] ;
758 -> 759 ;
760 [label="mse = 9683.99\nsamples = 145\nvalue = 807.759"] ;
758 -> 760 ;
761 [label="X[32] <= 1758.5\nmse = 12533.168\nsamples = 93\nvalue = 922.581"] ;
753 -> 761 ;
762 [label="X[18] <= 97.0\nmse = 8054.854\nsamples = 60\nvalue = 975.25"] ;
761 -> 762 ;
763 [label="mse = 6629.727\nsamples = 31\nvalue = 942.581"] ;
762 -> 763 ;
764 [label="mse = 7217.798\nsamples = 29\nvalue = 1010.172"] ;
762 -> 764 ;
765 [label="X[44] <= 707.685\nmse = 6461.361\nsamples = 33\nvalue = 826.818"] ;
761 -> 765 ;
766 [label="mse = 4383.964\nsamples = 21\nvalue = 865.19"] ;
765 -> 766 ;
767 [label="mse = 3010.722\nsamples = 12\nvalue = 759.667"] ;
765 -> 767 ;
768 [label="X[22] <= 1088.281\nmse = 79385.098\nsamples = 4703\nvalue = 1091.354"] ;
512 -> 768 ;
769 [label="X[22] <= 890.866\nmse = 21388.5\nsamples = 2807\nvalue = 904.864"] ;
768 -> 769 ;
770 [label="X[16] <= 0.5\nmse = 17304.025\nsamples = 1580\nvalue = 857.531"] ;
769 -> 770 ;
771 [label="X[46] <= 11.5\nmse = 13807.656\nsamples = 829\nvalue = 798.425"] ;
770 -> 771 ;
772 [label="X[37] <= 103.997\nmse = 10261.436\nsamples = 751\nvalue = 787.125"] ;
771 -> 772 ;
773 [label="X[30] <= 0.0\nmse = 6878.012\nsamples = 126\nvalue = 852.937"] ;
772 -> 773 ;
774 [label="X[46] <= 3.5\nmse = 16825.101\nsamples = 13\nvalue = 919.231"] ;
773 -> 774 ;
775 [label="mse = 7623.521\nsamples = 11\nvalue = 886.545"] ;
774 -> 775 ;
776 [label="mse = 29241.0\nsamples = 2\nvalue = 1099.0"] ;
774 -> 776 ;
777 [label="X[25] <= 22.0\nmse = 5169.878\nsamples = 113\nvalue = 845.31"] ;
773 -> 777 ;
778 [label="mse = 4555.873\nsamples = 105\nvalue = 851.114"] ;
777 -> 778 ;
779 [label="mse = 6982.359\nsamples = 8\nvalue = 769.125"] ;
777 -> 779 ;
780 [label="X[32] <= 296.5\nmse = 9894.349\nsamples = 625\nvalue = 773.858"] ;
772 -> 780 ;
781 [label="X[17] <= 0.5\nmse = 5795.737\nsamples = 117\nvalue = 724.513"] ;
780 -> 781 ;
782 [label="mse = 4800.25\nsamples = 113\nvalue = 730.876"] ;
781 -> 782 ;
783 [label="mse = 459.688\nsamples = 4\nvalue = 544.75"] ;
781 -> 783 ;
784 [label="X[35] <= 11171.5\nmse = 10148.366\nsamples = 508\nvalue = 785.222"] ;
780 -> 784 ;
785 [label="mse = 10627.596\nsamples = 77\nvalue = 727.325"] ;
784 -> 785 ;
786 [label="mse = 9356.881\nsamples = 431\nvalue = 795.566"] ;
784 -> 786 ;
787 [label="X[18] <= 81.5\nmse = 34886.094\nsamples = 78\nvalue = 907.218"] ;
771 -> 787 ;
788 [label="X[8] <= 0.5\nmse = 98279.04\nsamples = 5\nvalue = 521.6"] ;
787 -> 788 ;
789 [label="mse = 0.0\nsamples = 1\nvalue = 1121.0"] ;
788 -> 789 ;
790 [label="X[42] <= 1297.0\nmse = 10573.688\nsamples = 4\nvalue = 371.75"] ;
788 -> 790 ;
791 [label="mse = 0.0\nsamples = 1\nvalue = 210.0"] ;
790 -> 791 ;
792 [label="mse = 2470.222\nsamples = 3\nvalue = 425.667"] ;
790 -> 792 ;
793 [label="X[44] <= 783.434\nmse = 19661.493\nsamples = 73\nvalue = 933.63"] ;
787 -> 793 ;
794 [label="X[30] <= 6.5\nmse = 15364.69\nsamples = 66\nvalue = 911.712"] ;
793 -> 794 ;
795 [label="mse = 12399.288\nsamples = 56\nvalue = 892.125"] ;
794 -> 795 ;
796 [label="mse = 17791.04\nsamples = 10\nvalue = 1021.4"] ;
794 -> 796 ;
797 [label="X[19] <= 5.0\nmse = 12938.204\nsamples = 7\nvalue = 1140.286"] ;
793 -> 797 ;
798 [label="mse = 0.0\nsamples = 1\nvalue = 1381.0"] ;
797 -> 798 ;
799 [label="mse = 3827.806\nsamples = 6\nvalue = 1100.167"] ;
797 -> 799 ;
800 [label="X[46] <= 11.5\nmse = 13050.171\nsamples = 751\nvalue = 922.776"] ;
770 -> 800 ;
801 [label="X[22] <= 807.036\nmse = 8047.709\nsamples = 687\nvalue = 907.45"] ;
800 -> 801 ;
802 [label="X[28] <= -0.5\nmse = 5988.405\nsamples = 225\nvalue = 867.062"] ;
801 -> 802 ;
803 [label="X[24] <= 68.0\nmse = 10642.83\nsamples = 37\nvalue = 917.378"] ;
802 -> 803 ;
804 [label="mse = 10596.246\nsamples = 16\nvalue = 991.438"] ;
803 -> 804 ;
805 [label="mse = 3315.569\nsamples = 21\nvalue = 860.952"] ;
803 -> 805 ;
806 [label="X[28] <= 15.5\nmse = 4476.049\nsamples = 188\nvalue = 857.16"] ;
802 -> 806 ;
807 [label="mse = 3947.538\nsamples = 185\nvalue = 859.324"] ;
806 -> 807 ;
808 [label="mse = 18958.222\nsamples = 3\nvalue = 723.667"] ;
806 -> 808 ;
809 [label="X[29] <= 49.5\nmse = 7869.343\nsamples = 462\nvalue = 927.119"] ;
801 -> 809 ;
810 [label="X[22] <= 866.987\nmse = 7268.082\nsamples = 274\nvalue = 944.96"] ;
809 -> 810 ;
811 [label="mse = 5872.006\nsamples = 185\nvalue = 928.103"] ;
810 -> 811 ;
812 [label="mse = 8351.551\nsamples = 89\nvalue = 980.0"] ;
810 -> 812 ;
813 [label="X[44] <= 705.346\nmse = 7605.646\nsamples = 188\nvalue = 901.117"] ;
809 -> 813 ;
814 [label="mse = 4636.574\nsamples = 119\nvalue = 916.882"] ;
813 -> 814 ;
815 [label="mse = 11558.299\nsamples = 69\nvalue = 873.928"] ;
813 -> 815 ;
816 [label="X[36] <= 5458.0\nmse = 37159.927\nsamples = 64\nvalue = 1087.297"] ;
800 -> 816 ;
817 [label="X[27] <= 23.5\nmse = 17431.923\nsamples = 55\nvalue = 1039.309"] ;
816 -> 817 ;
818 [label="X[34] <= 3811.0\nmse = 11464.862\nsamples = 43\nvalue = 1081.698"] ;
817 -> 818 ;
819 [label="mse = 5452.09\nsamples = 17\nvalue = 1005.294"] ;
818 -> 819 ;
820 [label="mse = 9083.842\nsamples = 26\nvalue = 1131.654"] ;
818 -> 820 ;
821 [label="X[30] <= -2.0\nmse = 9304.076\nsamples = 12\nvalue = 887.417"] ;
817 -> 821 ;
822 [label="mse = 1646.889\nsamples = 3\nvalue = 972.333"] ;
821 -> 822 ;
823 [label="mse = 8651.654\nsamples = 9\nvalue = 859.111"] ;
821 -> 823 ;
824 [label="X[21] <= 46.0\nmse = 57646.469\nsamples = 9\nvalue = 1380.556"] ;
816 -> 824 ;
825 [label="X[26] <= 15.0\nmse = 22381.938\nsamples = 8\nvalue = 1449.25"] ;
824 -> 825 ;
826 [label="mse = 10713.551\nsamples = 7\nvalue = 1406.143"] ;
825 -> 826 ;
827 [label="mse = 0.0\nsamples = 1\nvalue = 1751.0"] ;
825 -> 827 ;
828 [label="mse = 0.0\nsamples = 1\nvalue = 831.0"] ;
824 -> 828 ;
829 [label="X[16] <= 0.5\nmse = 20048.264\nsamples = 1227\nvalue = 965.813"] ;
769 -> 829 ;
830 [label="X[22] <= 985.187\nmse = 19797.076\nsamples = 719\nvalue = 929.241"] ;
829 -> 830 ;
831 [label="X[46] <= 11.5\nmse = 20807.157\nsamples = 490\nvalue = 893.72"] ;
830 -> 831 ;
832 [label="X[37] <= 156.947\nmse = 12925.035\nsamples = 444\nvalue = 882.088"] ;
831 -> 832 ;
833 [label="X[46] <= 1.5\nmse = 11138.053\nsamples = 255\nvalue = 925.192"] ;
832 -> 833 ;
834 [label="mse = 23238.245\nsamples = 14\nvalue = 783.571"] ;
833 -> 834 ;
835 [label="mse = 9202.351\nsamples = 241\nvalue = 933.419"] ;
833 -> 835 ;
836 [label="X[19] <= -0.5\nmse = 9447.048\nsamples = 189\nvalue = 823.931"] ;
832 -> 836 ;
837 [label="mse = 9466.64\nsamples = 5\nvalue = 636.4"] ;
836 -> 837 ;
838 [label="mse = 8464.896\nsamples = 184\nvalue = 829.027"] ;
836 -> 838 ;
839 [label="X[37] <= 269.126\nmse = 82973.957\nsamples = 46\nvalue = 1006.0"] ;
831 -> 839 ;
840 [label="X[24] <= 62.5\nmse = 57889.156\nsamples = 42\nvalue = 960.286"] ;
839 -> 840 ;
841 [label="mse = 552.25\nsamples = 2\nvalue = 445.5"] ;
840 -> 841 ;
842 [label="mse = 46843.274\nsamples = 40\nvalue = 986.025"] ;
840 -> 842 ;
843 [label="X[19] <= 10.5\nmse = 94021.5\nsamples = 4\nvalue = 1486.0"] ;
839 -> 843 ;
844 [label="mse = 156.25\nsamples = 2\nvalue = 1179.5"] ;
843 -> 844 ;
845 [label="mse = 2.25\nsamples = 2\nvalue = 1792.5"] ;
843 -> 845 ;
846 [label="X[46] <= 7.5\nmse = 9159.495\nsamples = 229\nvalue = 1005.245"] ;
830 -> 846 ;
847 [label="X[25] <= 9.5\nmse = 9260.857\nsamples = 126\nvalue = 1034.0"] ;
846 -> 847 ;
848 [label="X[23] <= 5.5\nmse = 7720.708\nsamples = 48\nvalue = 986.479"] ;
847 -> 848 ;
849 [label="mse = 5548.568\nsamples = 44\nvalue = 999.523"] ;
848 -> 849 ;
850 [label="mse = 9156.5\nsamples = 4\nvalue = 843.0"] ;
848 -> 850 ;
851 [label="X[29] <= 12.5\nmse = 7963.774\nsamples = 78\nvalue = 1063.244"] ;
847 -> 851 ;
852 [label="mse = 0.0\nsamples = 1\nvalue = 1438.0"] ;
851 -> 852 ;
853 [label="mse = 6219.585\nsamples = 77\nvalue = 1058.377"] ;
851 -> 853 ;
854 [label="X[25] <= 11.5\nmse = 6786.588\nsamples = 103\nvalue = 970.068"] ;
846 -> 854 ;
855 [label="X[27] <= 12.5\nmse = 7249.149\nsamples = 46\nvalue = 1007.739"] ;
854 -> 855 ;
856 [label="mse = 3883.308\nsamples = 34\nvalue = 1026.471"] ;
855 -> 856 ;
857 [label="mse = 12974.889\nsamples = 12\nvalue = 954.667"] ;
855 -> 857 ;
858 [label="X[37] <= 90.539\nmse = 4343.801\nsamples = 57\nvalue = 939.667"] ;
854 -> 858 ;
859 [label="mse = 1183.546\nsamples = 25\nvalue = 987.88"] ;
858 -> 859 ;
860 [label="mse = 3577.938\nsamples = 32\nvalue = 902.0"] ;
858 -> 860 ;
861 [label="X[46] <= 11.5\nmse = 15831.205\nsamples = 508\nvalue = 1017.577"] ;
829 -> 861 ;
862 [label="X[46] <= 7.5\nmse = 9464.667\nsamples = 467\nvalue = 998.741"] ;
861 -> 862 ;
863 [label="X[45] <= 214.0\nmse = 8690.535\nsamples = 272\nvalue = 1023.096"] ;
862 -> 863 ;
864 [label="X[33] <= 0.125\nmse = 6870.758\nsamples = 136\nvalue = 983.147"] ;
863 -> 864 ;
865 [label="mse = 5849.753\nsamples = 106\nvalue = 998.038"] ;
864 -> 865 ;
866 [label="mse = 6926.649\nsamples = 30\nvalue = 930.533"] ;
864 -> 866 ;
867 [label="X[46] <= 4.5\nmse = 7318.542\nsamples = 136\nvalue = 1063.044"] ;
863 -> 867 ;
868 [label="mse = 6345.235\nsamples = 65\nvalue = 1024.508"] ;
867 -> 868 ;
869 [label="mse = 5605.374\nsamples = 71\nvalue = 1098.324"] ;
867 -> 869 ;
870 [label="X[24] <= 63.5\nmse = 8563.039\nsamples = 195\nvalue = 964.769"] ;
862 -> 870 ;
871 [label="X[25] <= 17.5\nmse = 7642.543\nsamples = 27\nvalue = 893.889"] ;
870 -> 871 ;
872 [label="mse = 1965.109\nsamples = 8\nvalue = 804.875"] ;
871 -> 872 ;
873 [label="mse = 5292.127\nsamples = 19\nvalue = 931.368"] ;
871 -> 873 ;
874 [label="X[28] <= 0.5\nmse = 7773.778\nsamples = 168\nvalue = 976.161"] ;
870 -> 874 ;
875 [label="mse = 10197.917\nsamples = 6\nvalue = 1116.5"] ;
874 -> 875 ;
876 [label="mse = 6927.529\nsamples = 162\nvalue = 970.963"] ;
874 -> 876 ;
877 [label="X[34] <= 12316.0\nmse = 38276.839\nsamples = 41\nvalue = 1232.122"] ;
861 -> 877 ;
878 [label="X[32] <= 450.0\nmse = 6215.622\nsamples = 29\nvalue = 1128.586"] ;
877 -> 878 ;
879 [label="X[27] <= 13.5\nmse = 3669.5\nsamples = 4\nvalue = 1252.0"] ;
878 -> 879 ;
880 [label="mse = 841.0\nsamples = 2\nvalue = 1309.0"] ;
879 -> 880 ;
881 [label="mse = 0.0\nsamples = 2\nvalue = 1195.0"] ;
879 -> 881 ;
882 [label="X[29] <= 40.5\nmse = 3796.134\nsamples = 25\nvalue = 1108.84"] ;
878 -> 882 ;
883 [label="mse = 600.25\nsamples = 2\nvalue = 1246.5"] ;
882 -> 883 ;
884 [label="mse = 2282.896\nsamples = 23\nvalue = 1096.87"] ;
882 -> 884 ;
885 [label="X[25] <= 7.0\nmse = 27246.556\nsamples = 12\nvalue = 1482.333"] ;
877 -> 885 ;
886 [label="X[33] <= 1.27\nmse = 11281.506\nsamples = 9\nvalue = 1405.222"] ;
885 -> 886 ;
887 [label="mse = 1642.889\nsamples = 6\nvalue = 1337.667"] ;
886 -> 887 ;
888 [label="mse = 3176.222\nsamples = 3\nvalue = 1540.333"] ;
886 -> 888 ;
889 [label="X[37] <= 214.48\nmse = 3788.222\nsamples = 3\nvalue = 1713.667"] ;
885 -> 889 ;
890 [label="mse = 0.0\nsamples = 1\nvalue = 1627.0"] ;
889 -> 890 ;
891 [label="mse = 49.0\nsamples = 2\nvalue = 1757.0"] ;
889 -> 891 ;
892 [label="X[22] <= 1645.568\nmse = 37529.057\nsamples = 1896\nvalue = 1367.451"] ;
768 -> 892 ;
893 [label="X[22] <= 1359.315\nmse = 29093.988\nsamples = 1800\nvalue = 1345.663"] ;
892 -> 893 ;
894 [label="X[17] <= 0.5\nmse = 27001.419\nsamples = 1135\nvalue = 1300.83"] ;
893 -> 894 ;
895 [label="X[16] <= 0.5\nmse = 22706.194\nsamples = 1119\nvalue = 1295.105"] ;
894 -> 895 ;
896 [label="X[22] <= 1259.568\nmse = 23783.922\nsamples = 668\nvalue = 1255.826"] ;
895 -> 896 ;
897 [label="X[46] <= 11.5\nmse = 25626.468\nsamples = 227\nvalue = 1188.855"] ;
896 -> 897 ;
898 [label="mse = 12310.216\nsamples = 206\nvalue = 1166.684"] ;
897 -> 898 ;
899 [label="mse = 104134.032\nsamples = 21\nvalue = 1406.333"] ;
897 -> 899 ;
900 [label="X[19] <= 25.5\nmse = 19338.391\nsamples = 441\nvalue = 1290.299"] ;
896 -> 900 ;
901 [label="mse = 18646.651\nsamples = 403\nvalue = 1280.325"] ;
900 -> 901 ;
902 [label="mse = 14430.073\nsamples = 38\nvalue = 1396.079"] ;
900 -> 902 ;
903 [label="X[24] <= 62.5\nmse = 15440.256\nsamples = 451\nvalue = 1353.282"] ;
895 -> 903 ;
904 [label="X[46] <= 7.5\nmse = 19020.019\nsamples = 94\nvalue = 1431.213"] ;
903 -> 904 ;
905 [label="mse = 18323.117\nsamples = 74\nvalue = 1455.068"] ;
904 -> 905 ;
906 [label="mse = 11702.747\nsamples = 20\nvalue = 1342.95"] ;
904 -> 906 ;
907 [label="X[46] <= 11.5\nmse = 12477.504\nsamples = 357\nvalue = 1332.762"] ;
903 -> 907 ;
908 [label="mse = 11389.59\nsamples = 321\nvalue = 1319.931"] ;
907 -> 908 ;
909 [label="mse = 7621.75\nsamples = 36\nvalue = 1447.167"] ;
907 -> 909 ;
910 [label="X[32] <= 1495.5\nmse = 164769.938\nsamples = 16\nvalue = 1701.25"] ;
894 -> 910 ;
911 [label="X[26] <= 15.5\nmse = 13746.889\nsamples = 3\nvalue = 1070.667"] ;
910 -> 911 ;
912 [label="X[24] <= 76.5\nmse = 2756.25\nsamples = 2\nvalue = 993.5"] ;
911 -> 912 ;
913 [label="mse = 0.0\nsamples = 1\nvalue = 1046.0"] ;
912 -> 913 ;
914 [label="mse = 0.0\nsamples = 1\nvalue = 941.0"] ;
912 -> 914 ;
915 [label="mse = 0.0\nsamples = 1\nvalue = 1225.0"] ;
911 -> 915 ;
916 [label="X[19] <= 13.0\nmse = 86683.562\nsamples = 13\nvalue = 1846.769"] ;
910 -> 916 ;
917 [label="X[22] <= 1330.126\nmse = 66190.8\nsamples = 5\nvalue = 1542.0"] ;
916 -> 917 ;
918 [label="mse = 13413.188\nsamples = 4\nvalue = 1424.25"] ;
917 -> 918 ;
919 [label="mse = 0.0\nsamples = 1\nvalue = 2013.0"] ;
917 -> 919 ;
920 [label="X[23] <= 14.0\nmse = 5155.938\nsamples = 8\nvalue = 2037.25"] ;
916 -> 920 ;
921 [label="mse = 3310.776\nsamples = 7\nvalue = 2019.286"] ;
920 -> 921 ;
922 [label="mse = 0.0\nsamples = 1\nvalue = 2163.0"] ;
920 -> 922 ;
923 [label="X[16] <= 0.5\nmse = 23379.53\nsamples = 665\nvalue = 1422.183"] ;
893 -> 923 ;
924 [label="X[22] <= 1486.536\nmse = 19807.286\nsamples = 359\nvalue = 1372.501"] ;
923 -> 924 ;
925 [label="X[46] <= 1.5\nmse = 19271.005\nsamples = 314\nvalue = 1357.446"] ;
924 -> 925 ;
926 [label="X[31] <= 14.5\nmse = 42552.415\nsamples = 17\nvalue = 1219.765"] ;
925 -> 926 ;
927 [label="mse = 5965.902\nsamples = 16\nvalue = 1267.812"] ;
926 -> 927 ;
928 [label="mse = 0.0\nsamples = 1\nvalue = 451.0"] ;
926 -> 928 ;
929 [label="X[25] <= 27.0\nmse = 16791.264\nsamples = 297\nvalue = 1365.327"] ;
925 -> 929 ;
930 [label="mse = 16038.503\nsamples = 296\nvalue = 1363.676"] ;
929 -> 930 ;
931 [label="mse = 0.0\nsamples = 1\nvalue = 1854.0"] ;
929 -> 931 ;
932 [label="X[29] <= 77.5\nmse = 10931.314\nsamples = 45\nvalue = 1477.556"] ;
924 -> 932 ;
933 [label="X[29] <= 59.5\nmse = 7778.051\nsamples = 44\nvalue = 1486.25"] ;
932 -> 933 ;
934 [label="mse = 5757.078\nsamples = 31\nvalue = 1468.226"] ;
933 -> 934 ;
935 [label="mse = 9975.254\nsamples = 13\nvalue = 1529.231"] ;
933 -> 935 ;
936 [label="mse = 0.0\nsamples = 1\nvalue = 1095.0"] ;
932 -> 936 ;
937 [label="X[3] <= 0.5\nmse = 21277.282\nsamples = 306\nvalue = 1480.471"] ;
923 -> 937 ;
938 [label="X[24] <= 71.5\nmse = 17570.031\nsamples = 204\nvalue = 1452.848"] ;
937 -> 938 ;
939 [label="X[45] <= 269.0\nmse = 20614.147\nsamples = 97\nvalue = 1503.495"] ;
938 -> 939 ;
940 [label="mse = 23577.83\nsamples = 53\nvalue = 1551.019"] ;
939 -> 940 ;
941 [label="mse = 11046.778\nsamples = 44\nvalue = 1446.25"] ;
939 -> 941 ;
942 [label="X[46] <= 11.5\nmse = 10376.996\nsamples = 107\nvalue = 1406.935"] ;
938 -> 942 ;
943 [label="mse = 9020.485\nsamples = 94\nvalue = 1390.064"] ;
942 -> 943 ;
944 [label="mse = 3246.379\nsamples = 13\nvalue = 1528.923"] ;
942 -> 944 ;
945 [label="X[17] <= 0.5\nmse = 24113.752\nsamples = 102\nvalue = 1535.716"] ;
937 -> 945 ;
946 [label="X[46] <= 11.5\nmse = 15166.2\nsamples = 96\nvalue = 1518.594"] ;
945 -> 946 ;
947 [label="mse = 12669.991\nsamples = 86\nvalue = 1502.907"] ;
946 -> 947 ;
948 [label="mse = 16317.65\nsamples = 10\nvalue = 1653.5"] ;
946 -> 948 ;
949 [label="X[37] <= 140.754\nmse = 87534.889\nsamples = 6\nvalue = 1809.667"] ;
945 -> 949 ;
950 [label="mse = 9484.222\nsamples = 3\nvalue = 1527.667"] ;
949 -> 950 ;
951 [label="mse = 6537.556\nsamples = 3\nvalue = 2091.667"] ;
949 -> 951 ;
952 [label="X[46] <= 4.5\nmse = 19890.666\nsamples = 96\nvalue = 1775.979"] ;
892 -> 952 ;
953 [label="X[30] <= -3.5\nmse = 12452.966\nsamples = 26\nvalue = 1688.269"] ;
952 -> 953 ;
954 [label="X[21] <= 34.5\nmse = 1120.889\nsamples = 3\nvalue = 1514.333"] ;
953 -> 954 ;
955 [label="X[28] <= -11.5\nmse = 400.0\nsamples = 2\nvalue = 1535.0"] ;
954 -> 955 ;
956 [label="mse = 0.0\nsamples = 1\nvalue = 1515.0"] ;
955 -> 956 ;
957 [label="mse = 0.0\nsamples = 1\nvalue = 1555.0"] ;
955 -> 957 ;
958 [label="mse = 0.0\nsamples = 1\nvalue = 1473.0"] ;
954 -> 958 ;
959 [label="X[29] <= 63.5\nmse = 9470.216\nsamples = 23\nvalue = 1710.957"] ;
953 -> 959 ;
960 [label="X[29] <= 56.0\nmse = 4761.809\nsamples = 16\nvalue = 1747.062"] ;
959 -> 960 ;
961 [label="X[29] <= 23.5\nmse = 3499.408\nsamples = 14\nvalue = 1734.857"] ;
960 -> 961 ;
962 [label="mse = 0.0\nsamples = 1\nvalue = 1869.0"] ;
961 -> 962 ;
963 [label="mse = 2277.941\nsamples = 13\nvalue = 1724.538"] ;
961 -> 963 ;
964 [label="X[18] <= 98.5\nmse = 5256.25\nsamples = 2\nvalue = 1832.5"] ;
960 -> 964 ;
965 [label="mse = 0.0\nsamples = 1\nvalue = 1905.0"] ;
964 -> 965 ;
966 [label="mse = 0.0\nsamples = 1\nvalue = 1760.0"] ;
964 -> 966 ;
967 [label="X[20] <= 22.5\nmse = 10441.673\nsamples = 7\nvalue = 1628.429"] ;
959 -> 967 ;
968 [label="X[25] <= 3.5\nmse = 9278.0\nsamples = 3\nvalue = 1708.0"] ;
967 -> 968 ;
969 [label="mse = 0.0\nsamples = 1\nvalue = 1575.0"] ;
968 -> 969 ;
970 [label="mse = 650.25\nsamples = 2\nvalue = 1774.5"] ;
968 -> 970 ;
971 [label="X[25] <= 0.5\nmse = 3004.188\nsamples = 4\nvalue = 1568.75"] ;
967 -> 971 ;
972 [label="mse = 0.0\nsamples = 1\nvalue = 1660.0"] ;
971 -> 972 ;
973 [label="mse = 304.889\nsamples = 3\nvalue = 1538.333"] ;
971 -> 973 ;
974 [label="X[46] <= 9.5\nmse = 18734.504\nsamples = 70\nvalue = 1808.557"] ;
952 -> 974 ;
975 [label="X[19] <= 25.5\nmse = 11963.03\nsamples = 43\nvalue = 1850.605"] ;
974 -> 975 ;
976 [label="X[26] <= 6.5\nmse = 10599.398\nsamples = 34\nvalue = 1831.118"] ;
975 -> 976 ;
977 [label="mse = 0.0\nsamples = 1\nvalue = 2018.0"] ;
976 -> 977 ;
978 [label="X[29] <= 68.5\nmse = 9830.187\nsamples = 33\nvalue = 1825.455"] ;
976 -> 978 ;
979 [label="mse = 7959.174\nsamples = 31\nvalue = 1837.71"] ;
978 -> 979 ;
980 [label="mse = 420.25\nsamples = 2\nvalue = 1635.5"] ;
978 -> 980 ;
981 [label="X[26] <= 15.5\nmse = 10260.395\nsamples = 9\nvalue = 1924.222"] ;
975 -> 981 ;
982 [label="X[19] <= 27.5\nmse = 2465.222\nsamples = 6\nvalue = 1971.333"] ;
981 -> 982 ;
983 [label="mse = 380.25\nsamples = 2\nvalue = 2033.5"] ;
982 -> 983 ;
984 [label="mse = 609.188\nsamples = 4\nvalue = 1940.25"] ;
982 -> 984 ;
985 [label="X[28] <= 11.5\nmse = 12534.0\nsamples = 3\nvalue = 1830.0"] ;
981 -> 985 ;
986 [label="mse = 0.0\nsamples = 1\nvalue = 1974.0"] ;
985 -> 986 ;
987 [label="mse = 3249.0\nsamples = 2\nvalue = 1758.0"] ;
985 -> 987 ;
988 [label="X[46] <= 11.5\nmse = 22218.76\nsamples = 27\nvalue = 1741.593"] ;
974 -> 988 ;
989 [label="X[19] <= 19.0\nmse = 12639.46\nsamples = 18\nvalue = 1665.389"] ;
988 -> 989 ;
990 [label="X[24] <= 73.5\nmse = 10626.0\nsamples = 16\nvalue = 1685.0"] ;
989 -> 990 ;
991 [label="mse = 0.0\nsamples = 1\nvalue = 1499.0"] ;
990 -> 991 ;
992 [label="mse = 8874.24\nsamples = 15\nvalue = 1697.4"] ;
990 -> 992 ;
993 [label="X[10] <= 0.5\nmse = 1056.25\nsamples = 2\nvalue = 1508.5"] ;
989 -> 993 ;
994 [label="mse = 0.0\nsamples = 1\nvalue = 1541.0"] ;
993 -> 994 ;
995 [label="mse = 0.0\nsamples = 1\nvalue = 1476.0"] ;
993 -> 995 ;
996 [label="X[28] <= -6.0\nmse = 6535.333\nsamples = 9\nvalue = 1894.0"] ;
988 -> 996 ;
997 [label="mse = 0.0\nsamples = 1\nvalue = 1716.0"] ;
996 -> 997 ;
998 [label="X[24] <= 88.5\nmse = 2896.688\nsamples = 8\nvalue = 1916.25"] ;
996 -> 998 ;
999 [label="mse = 2469.76\nsamples = 5\nvalue = 1943.8"] ;
998 -> 999 ;
1000 [label="mse = 234.889\nsamples = 3\nvalue = 1870.333"] ;
998 -> 1000 ;
}